/* Generated by Edge Impulse
 *
 * Permission is hereby granted, free of charge, to any person obtaining a copy
 * of this software and associated documentation files (the "Software"), to deal
 * in the Software without restriction, including without limitation the rights
 * to use, copy, modify, merge, publish, distribute, sublicense, and/or sell
 * copies of the Software, and to permit persons to whom the Software is
 * furnished to do so, subject to the following conditions:
 *
 * The above copyright notice and this permission notice shall be included in
 * all copies or substantial portions of the Software.
 *
 * THE SOFTWARE IS PROVIDED "AS IS", WITHOUT WARRANTY OF ANY KIND, EXPRESS OR
 * IMPLIED, INCLUDING BUT NOT LIMITED TO THE WARRANTIES OF MERCHANTABILITY,
 * FITNESS FOR A PARTICULAR PURPOSE AND NONINFRINGEMENT. IN NO EVENT SHALL THE
 * AUTHORS OR COPYRIGHT HOLDERS BE LIABLE FOR ANY CLAIM, DAMAGES OR OTHER
 * LIABILITY, WHETHER IN AN ACTION OF CONTRACT, TORT OR OTHERWISE, ARISING FROM,
 * OUT OF OR IN CONNECTION WITH THE SOFTWARE OR THE USE OR OTHER DEALINGS IN THE
 * SOFTWARE.
 */
// Generated on: 14.06.2023 15:23:39

#include <stdio.h>
#include <stdlib.h>
#include "edge-impulse-sdk/tensorflow/lite/c/builtin_op_data.h"
#include "edge-impulse-sdk/tensorflow/lite/c/common.h"
#include "edge-impulse-sdk/tensorflow/lite/micro/micro_mutable_op_resolver.h"
#include "edge-impulse-sdk/porting/ei_classifier_porting.h"

#if EI_CLASSIFIER_PRINT_STATE
#if defined(__cplusplus) && EI_C_LINKAGE == 1
extern "C" {
    extern void ei_printf(const char *format, ...);
}
#else
extern void ei_printf(const char *format, ...);
#endif
#endif

#if defined __GNUC__
#define ALIGN(X) __attribute__((aligned(X)))
#elif defined _MSC_VER
#define ALIGN(X) __declspec(align(X))
#elif defined __TASKING__
#define ALIGN(X) __align(X)
#endif

#ifndef EI_MAX_SCRATCH_BUFFER_COUNT
#define EI_MAX_SCRATCH_BUFFER_COUNT 4
#endif // EI_MAX_SCRATCH_BUFFER_COUNT

#ifndef EI_MAX_OVERFLOW_BUFFER_COUNT
#define EI_MAX_OVERFLOW_BUFFER_COUNT 10
#endif // EI_MAX_OVERFLOW_BUFFER_COUNT

using namespace tflite;
using namespace tflite::ops;
using namespace tflite::ops::micro;

namespace {

#if defined(EI_CLASSIFIER_ALLOCATION_STATIC_HIMAX) || defined(EI_CLASSIFIER_ALLOCATION_STATIC_HIMAX_GNU)
constexpr int kTensorArenaSize = 5586032;
#else
constexpr int kTensorArenaSize = 5585008;
#endif

#if defined(EI_CLASSIFIER_ALLOCATION_STATIC)
uint8_t tensor_arena[kTensorArenaSize] ALIGN(16);
#elif defined(EI_CLASSIFIER_ALLOCATION_STATIC_HIMAX)
#pragma Bss(".tensor_arena")
uint8_t tensor_arena[kTensorArenaSize] ALIGN(16);
#pragma Bss()
#elif defined(EI_CLASSIFIER_ALLOCATION_STATIC_HIMAX_GNU)
uint8_t tensor_arena[kTensorArenaSize] ALIGN(16) __attribute__((section(".tensor_arena")));
#else
#define EI_CLASSIFIER_ALLOCATION_HEAP 1
uint8_t* tensor_arena = NULL;
#endif

static uint8_t* tensor_boundary;
static uint8_t* current_location;

template <int SZ, class T> struct TfArray {
  int sz; T elem[SZ];
};
enum used_operators_e {
  OP_CONV_2D, OP_DEPTHWISE_CONV_2D, OP_PAD, OP_ADD, OP_SOFTMAX,  OP_LAST
};
struct TensorInfo_t { // subset of TfLiteTensor used for initialization from constant memory
  TfLiteAllocationType allocation_type;
  TfLiteType type;
  void* data;
  TfLiteIntArray* dims;
  size_t bytes;
};
struct NodeInfo_t { // subset of TfLiteNode used for initialization from constant memory
  struct TfLiteIntArray* inputs;
  struct TfLiteIntArray* outputs;
  void* builtin_data;
  used_operators_e used_op_index;
};

typedef struct {
  TfLiteTensor tensor;
  int16_t index;
} TfLiteTensorWithIndex;

typedef struct {
  TfLiteEvalTensor tensor;
  int16_t index;
} TfLiteEvalTensorWithIndex;

TfLiteContext ctx{};
static const int MAX_TFL_TENSOR_COUNT = 4;
static TfLiteTensorWithIndex tflTensors[MAX_TFL_TENSOR_COUNT];
static const int MAX_TFL_EVAL_COUNT = 4;
static TfLiteEvalTensorWithIndex tflEvalTensors[MAX_TFL_EVAL_COUNT];
TfLiteRegistration registrations[OP_LAST];
TfLiteNode tflNodes[27];

const TfArray<4, int> tensor_dimension0 = { 4, { 1,240,240,3 } };
const ALIGN(16) float tensor_data1[32] = { 0.013597019016742706, 0.063665606081485748, 0.010248191654682159, -0.015829157084226608, -0.0028469495009630919, -0.020484080538153648, 0.076469495892524719, 0.0019829340744763613, 0.01050659641623497, 0.011497475206851959, 0.0090862587094306946, -0.0071404865011572838, -0.014561318792402744, 0.0026286900974810123, -0.00053972506430000067, 0.017866740003228188, -0.0046081687323749065, -0.00069103442365303636, -0.0092540625482797623, -0.0044176401570439339, -0.015142870135605335, 0.011441633105278015, 0.0085341129451990128, 0.011151197366416454, -0.022982073947787285, -0.011534401215612888, 0.0096428981050848961, -0.011481635272502899, -0.010149265639483929, -0.0018980709137395024, 0.0035690872464329004, -0.021204167976975441, };
const TfArray<1, int> tensor_dimension1 = { 1, { 32 } };
const ALIGN(16) int32_t tensor_data2[4*2] = { 
  0, 0, 
  0, 1, 
  0, 1, 
  0, 0, 
};
const TfArray<2, int> tensor_dimension2 = { 2, { 4,2 } };
const ALIGN(16) float tensor_data3[16] = { -1.40682053565979, 6.6162080764770508, -25.179862976074219, -0.91796135902404785, 2.1604688167572021, 14.723750114440918, 2.8377676010131836, 12.86772632598877, -2.2658267021179199, 0.23010993003845215, 3.1820993423461914, 6.1314873695373535, -1.2384405136108398, 3.8000814914703369, 1.8549518585205078, -0.13350634276866913, };
const TfArray<1, int> tensor_dimension3 = { 1, { 16 } };
const ALIGN(16) float tensor_data4[16] = { -0.30109995603561401, 2.6251797676086426, 4.0081276893615723, 3.4715409278869629, 1.532011866569519, 3.3022046089172363, 5.3769726753234863, 3.913548469543457, -0.22945371270179749, 1.6531834602355957, 6.9817018508911133, 18.762123107910156, -0.32396247982978821, 7.4097275733947754, 2.0445222854614258, -0.41642889380455017, };
const TfArray<1, int> tensor_dimension4 = { 1, { 16 } };
const ALIGN(16) float tensor_data5[48] = { 2.0689244270324707, 0.087836578488349915, 3.1202027797698975, 1.911767840385437, 1.9860477447509766, 2.1034374237060547, 3.8170843124389648, -0.041405163705348969, -0.010026451200246811, -0.76866239309310913, 1.4638886451721191, 0.83717548847198486, 2.2097635269165039, -0.16218365728855133, 2.6410408020019531, 3.2995202541351318, -0.1309230625629425, -0.7113267183303833, -0.18726837635040283, 3.8612878322601318, 1.0995310544967651, -0.099696218967437744, 0.0027548489160835743, 0.66034859418869019, 3.7677543163299561, -0.55074965953826904, 0.16247522830963135, 1.2212991714477539, 1.1192682981491089, 2.9349455833435059, 3.0046505928039551, 2.3472630977630615, 0.76012706756591797, 3.2237927913665771, 0.15173631906509399, -1.2279564142227173, 1.5462039709091187, 1.2784949541091919, -0.35796099901199341, 3.4575049877166748, 2.8820958137512207, 2.1802511215209961, -0.17994526028633118, -0.88308405876159668, 5.0220451354980469, 0.085630036890506744, 2.8128290176391602, 0.87969845533370972, };
const TfArray<1, int> tensor_dimension5 = { 1, { 48 } };
const ALIGN(16) float tensor_data6[48] = { 6.0184602737426758, 3.9586615562438965, 7.157686710357666, 4.5414619445800781, 0.0500035360455513, 3.0864536762237549, 0.25920185446739197, 1.3577842712402344, 2.3517999649047852, 0.58962905406951904, 2.4243636131286621, 0.15978628396987915, -7.9434232711791992, -0.70510011911392212, 2.5597238540649414, 0.22125905752182007, -0.56034213304519653, 0.47715699672698975, 0.34654071927070618, 0.12752920389175415, -1.5000762939453125, -1.3383798599243164, 5.6364617347717285, 1.2734472751617432, -1.0467624664306641, 2.7302522659301758, 1.1651222705841064, 0.81004595756530762, -1.2860668897628784, 1.2116947174072266, -0.3861452043056488, -11.690128326416016, 2.4442543983459473, 0.91744744777679443, 2.5044682025909424, 0.35517966747283936, 0.85773968696594238, -0.28885895013809204, 4.6355166435241699, -2.4167861938476562, 1.2445094585418701, -3.5239605903625488, 0.4288860559463501, 0.731667160987854, -0.68974655866622925, 5.8779716491699219, 0.31005662679672241, -2.5212433338165283, };
const TfArray<1, int> tensor_dimension6 = { 1, { 48 } };
const ALIGN(16) float tensor_data7[48] = { 4.3409614562988281, 2.2684662342071533, 1.5694988965988159, 3.2310082912445068, 2.2541944980621338, 5.0434913635253906, -1.9446707963943481, -0.30372080206871033, 0.54576921463012695, 1.3411455154418945, 2.2689476013183594, 0.14916443824768066, 0.99866831302642822, -0.46401742100715637, 0.4411565363407135, -3.6560676097869873, 1.6249607801437378, 4.2460498809814453, -0.48608392477035522, 2.6850981712341309, 1.2382762432098389, 0.96186411380767822, 3.9739727973937988, -0.52342510223388672, 1.1837793588638306, 1.1852105855941772, 4.0773582458496094, 3.662100076675415, -0.084596201777458191, -2.6058588027954102, 0.083707764744758606, 0.82400447130203247, -2.0110013484954834, 2.2116823196411133, 1.0469570159912109, 1.8551124334335327, 3.6415576934814453, 1.3395557403564453, 2.3510706424713135, 4.5362691879272461, -0.58450078964233398, 2.8512482643127441, 0.50637662410736084, 1.5308837890625, 1.1726788282394409, 1.072975754737854, -1.1648433208465576, 2.668799877166748, };
const TfArray<1, int> tensor_dimension7 = { 1, { 48 } };
const ALIGN(16) float tensor_data8[48] = { -22.406835556030273, -0.10339578986167908, 1.3768534660339355, -0.12352883815765381, 1.0122038125991821, -0.78247380256652832, 1.1015005111694336, 3.4564924240112305, 0.012291997671127319, 4.7687325477600098, -0.26663127541542053, 4.2719755172729492, -2.2214112281799316, -0.18873244524002075, 2.5482587814331055, 1.4880229234695435, 0.24955394864082336, 4.6000185012817383, 2.3480727672576904, 2.4131841659545898, 0.075819298624992371, -0.11488194763660431, 0.26028686761856079, 2.1746981143951416, -1.1947149038314819, 3.7002463340759277, 28.633563995361328, 3.6246652603149414, 0.64132285118103027, 0.83015304803848267, -0.013473600149154663, 0.38039541244506836, 0.86263573169708252, 3.009678840637207, -1.4726591110229492, 2.4631450176239014, -4.6379342079162598, 2.4656119346618652, -7.4933428764343262, 2.3037962913513184, 3.2954022884368896, 1.9820916652679443, 1.6474834680557251, -0.29851862788200378, 2.4625556468963623, 0.30543014407157898, 0.27265489101409912, 0.096441030502319336, };
const TfArray<1, int> tensor_dimension8 = { 1, { 48 } };
const ALIGN(16) float tensor_data9[48] = { 0.25312778353691101, 0.70794045925140381, 0.57694971561431885, 0.13449943065643311, 2.209834098815918, 4.0234661102294922, 1.1282974481582642, 0.014631243422627449, -0.31137484312057495, -0.46645519137382507, 0.98324716091156006, 0.28810083866119385, 1.2318141460418701, 0.80352699756622314, 3.6209063529968262, 1.3227250576019287, 0.52953952550888062, -0.39373838901519775, -0.0550835020840168, 0.92643058300018311, -0.62355309724807739, 2.5230894088745117, 3.6497268676757812, 1.5819611549377441, 1.6099449396133423, 0.074196361005306244, 6.9626913070678711, 1.8643208742141724, 1.755550742149353, -0.20446446537971497, 2.63543701171875, 1.205021858215332, 0.38490498065948486, -0.0281404759734869, 3.7185540199279785, 1.8131122589111328, -1.3710758686065674, 0.076474256813526154, -0.18841814994812012, 1.8059122562408447, 0.19771960377693176, -0.14294739067554474, -0.32885724306106567, -0.016632802784442902, 1.9654123783111572, 1.3566368818283081, 0.23550136387348175, 1.1666401624679565, };
const TfArray<1, int> tensor_dimension9 = { 1, { 48 } };
const ALIGN(16) float tensor_data10[48] = { 0.51078933477401733, 1.2391310930252075, -0.19358557462692261, 2.429678201675415, 0.67691296339035034, 10.020994186401367, -0.21512216329574585, 5.5776748657226562, 0.40060150623321533, 0.99282562732696533, 1.0584360361099243, 0.32829749584197998, -0.024663686752319336, 0.99793261289596558, -0.42509785294532776, 0.060639142990112305, -0.011999916285276413, 0.16412362456321716, 0.36026257276535034, -0.33759060502052307, 0.15546587109565735, -0.50942981243133545, -0.022292405366897583, -3.2060937881469727, -0.49948859214782715, 4.2824559211730957, 3.5543487071990967, 7.3841099739074707, 0.37404432892799377, 0.32577455043792725, -0.46513962745666504, -0.097211629152297974, 1.1679199934005737, 0.045473694801330566, 0.66832447052001953, -0.39179658889770508, 5.5841803550720215, 0.36951440572738647, 5.4382138252258301, 0.3581278920173645, 0.063231348991394043, 5.7241296768188477, 0.30157068371772766, 0.52173483371734619, 1.7565892934799194, -0.047335982322692871, 0.11952102184295654, 1.5108916759490967, };
const TfArray<1, int> tensor_dimension10 = { 1, { 48 } };
const ALIGN(16) float tensor_data11[96] = { 2.5799796581268311, 0.32987731695175171, 1.3716890811920166, -0.53963947296142578, 1.5700279474258423, 0.95305114984512329, 3.1264870166778564, 3.4708364009857178, -0.43769010901451111, 1.8470689058303833, 1.3954024314880371, 0.81212794780731201, 2.7734978199005127, 4.8025956153869629, -0.11409423500299454, -0.6695866584777832, 2.208507776260376, 2.3221189975738525, 0.4425932765007019, -0.076731301844120026, -0.30842578411102295, 2.477238655090332, 1.4826837778091431, 0.8422008752822876, 1.7765568494796753, 2.0923163890838623, 1.4633270502090454, 0.9106975793838501, 0.054671242833137512, 0.0089531335979700089, 1.4414142370223999, 1.8762052059173584, 1.9540700912475586, 1.0907411575317383, 1.677977442741394, -0.32033616304397583, 2.2319667339324951, 2.6401734352111816, 0.45436161756515503, 0.8983147144317627, 0.47290179133415222, 1.8973877429962158, 2.13112473487854, 0.7497401237487793, 1.1296005249023438, 3.2703449726104736, 2.8569221496582031, 1.4445276260375977, 1.6622815132141113, 0.88924211263656616, 0.10878676921129227, -0.69747656583786011, 2.6579434871673584, 1.6037336587905884, 2.3181271553039551, 1.8562928438186646, -0.14457309246063232, 1.7207942008972168, 0.80140197277069092, 1.640652060508728, 1.7414039373397827, 1.3457623720169067, 1.051611065864563, 2.7729227542877197, 1.0720223188400269, 1.1033319234848022, 1.9501938819885254, -0.40162140130996704, 2.6720669269561768, 1.1269629001617432, 2.030724048614502, -0.46773266792297363, -0.35571089386940002, 1.3223271369934082, 0.42628657817840576, 1.2527908086776733, 2.3327429294586182, 4.5058503150939941, 1.6397120952606201, -1.2281982898712158, 1.0750530958175659, -2.0313796997070312, -0.40834036469459534, 0.27798277139663696, 1.5826226472854614, 1.5650539398193359, 1.583518385887146, 1.3969573974609375, 1.6788604259490967, 1.5620537996292114, 1.398632287979126, 1.6894365549087524, 2.1162853240966797, 2.7269670963287354, -2.9303455352783203, 3.304314136505127, };
const TfArray<1, int> tensor_dimension11 = { 1, { 96 } };
const ALIGN(16) float tensor_data12[96] = { 2.2637503147125244, -0.88539767265319824, 1.2534942626953125, 2.094473123550415, -0.33342799544334412, -0.85492146015167236, -3.3445215225219727, 0.21735091507434845, -0.27020785212516785, 0.31794100999832153, 0.42036807537078857, -0.76227253675460815, 0.00217437744140625, -0.14939785003662109, 1.0726995468139648, -0.83372557163238525, -0.15641652047634125, 4.8167762756347656, 1.5141245126724243, 0.52186882495880127, 0.21042367815971375, -0.7152361273765564, -0.095794476568698883, 0.51066422462463379, 3.8112123012542725, 0.5440133810043335, -0.059904769062995911, -0.67161917686462402, -0.55866110324859619, -0.81695818901062012, 0.77274751663208008, -1.4869539737701416, -0.11397430300712585, -0.34575179219245911, -0.080231308937072754, 2.3861010074615479, 0.67890715599060059, -0.51850384473800659, 1.195223331451416, 0.077401325106620789, -0.20115391910076141, 0.78103125095367432, -3.7400286197662354, -1.3208357095718384, -1.2322535514831543, 5.2169046401977539, -0.24412032961845398, 3.6801700592041016, 2.4147148132324219, -2.5955238342285156, -0.13694089651107788, 1.1933903694152832, 1.3839818239212036, -0.21653467416763306, -1.3906435966491699, 1.030393123626709, -4.1324601173400879, 0.24507822096347809, 0.27657526731491089, -0.68080234527587891, -0.71238839626312256, -0.23714448511600494, -3.9232392311096191, -0.13291271030902863, 0.49082618951797485, 2.9254603385925293, 2.6511433124542236, 1.8520866632461548, -5.2716751098632812, -0.082588247954845428, -1.3062351942062378, -0.011681467294692993, 5.917060375213623, 2.0357680320739746, 0.017493993043899536, -0.21348759531974792, 8.5971908569335938, 2.3187031745910645, -0.64327943325042725, -1.9113786220550537, -0.23981642723083496, -2.1350703239440918, 0.079022914171218872, -0.24340392649173737, 0.18023198843002319, -0.01627117395401001, 0.10496732592582703, -0.048711657524108887, 0.47447648644447327, -0.46413090825080872, 0.093390025198459625, -0.053079023957252502, -0.32595959305763245, -0.48552283644676208, 1.2297930717468262, 4.0961079597473145, };
const TfArray<1, int> tensor_dimension12 = { 1, { 96 } };
const ALIGN(16) float tensor_data13[96] = { 0.35884192585945129, 1.4490249156951904, 1.9026273488998413, 2.2645032405853271, 3.0288689136505127, -1.011460542678833, -0.83651477098464966, 1.6040841341018677, 2.3354120254516602, -1.365894079208374, 2.6301865577697754, 0.88538277149200439, 1.2899776697158813, 2.303213357925415, 2.3989219665527344, 0.62044423818588257, 0.45213150978088379, 1.246073842048645, 2.1772820949554443, 1.181835412979126, -0.10193324834108353, 0.22189512848854065, 2.0122799873352051, -0.62173503637313843, 2.5935218334197998, -0.0013471228303387761, 2.23026442527771, 1.4113050699234009, 1.6589201688766479, 3.5274219512939453, 2.8051180839538574, 2.4979338645935059, 1.6575784683227539, -0.23991666734218597, 1.9916975498199463, 0.58057403564453125, 0.49379730224609375, 1.4815226793289185, 2.6742525100708008, -0.57367461919784546, 1.7854701280593872, 1.5989484786987305, 2.6793985366821289, -1.0743676424026489, 3.3116161823272705, 1.5448384284973145, 1.74193274974823, 2.6577765941619873, 4.0928888320922852, 2.0896201133728027, -0.13164907693862915, 1.7197970151901245, -1.0648413896560669, -0.029827199876308441, -1.009157657623291, 1.0604512691497803, -0.073116734623908997, 1.8154237270355225, 2.0108046531677246, 1.499199390411377, 1.5804054737091064, 1.4069530963897705, 1.4361647367477417, 1.0189610719680786, 2.4878182411193848, 1.9513536691665649, 1.2886401414871216, -1.3330594301223755, 1.6384596824645996, -0.70619046688079834, 1.1147050857543945, 1.5716671943664551, 2.1002159118652344, 1.0128824710845947, -1.5516469478607178, -1.3740960359573364, 1.6749941110610962, 0.13612684607505798, 0.75162506103515625, -0.39162981510162354, 2.0605700016021729, 1.5827276706695557, 0.86512935161590576, 1.9510159492492676, 1.1338652372360229, 0.058421917259693146, 2.348163366317749, 3.8215036392211914, 1.4234839677810669, 2.2213764190673828, 1.2588504552841187, -0.097442165017127991, 1.4818954467773438, 1.6237773895263672, 1.1298203468322754, 1.6849428415298462, };
const TfArray<1, int> tensor_dimension13 = { 1, { 96 } };
const ALIGN(16) float tensor_data14[96] = { 2.6404762268066406, 5.7960176467895508, -0.3602931797504425, -0.19669093191623688, 3.9443800449371338, -0.79338657855987549, -0.0051711499691009521, -0.076412349939346313, 1.8200671672821045, 2.4645226001739502, -1.5152124166488647, 0.058317899703979492, 0.35137253999710083, 1.2906626462936401, 2.6081831455230713, -1.5167006254196167, -0.72651082277297974, -0.02240963838994503, -0.62758201360702515, 0.99802494049072266, -0.81810140609741211, 0.42231488227844238, -0.8001217246055603, 0.79516148567199707, 2.8974339962005615, 0.046319734305143356, -0.69880461692810059, 3.2842938899993896, 1.2779414653778076, -11.722026824951172, 0.69990444183349609, 5.0674409866333008, 2.7045414447784424, -1.5644314289093018, 0.46241164207458496, 0.17394089698791504, 0.070367515087127686, 0.065608024597167969, 0.96846771240234375, -0.74751162528991699, -1.4043722152709961, -0.2562938928604126, -0.5874483585357666, 0.031952790915966034, 13.568609237670898, -0.21230535209178925, 1.7757250070571899, -0.56121683120727539, -12.275766372680664, 0.20982678234577179, -0.038734778761863708, 0.12274103611707687, -0.47275996208190918, 2.9380733966827393, -0.75748300552368164, 1.7248857021331787, 2.7055070400238037, -0.74709832668304443, 1.5400493144989014, 0.048414327204227448, -3.1258292198181152, -0.37464174628257751, -0.04423242062330246, -0.03393910825252533, -0.37903553247451782, 2.0736434459686279, -0.086081624031066895, -2.1083347797393799, -0.6478467583656311, 0.41636866331100464, -0.084577612578868866, -0.71271592378616333, 0.5215226411819458, -0.16041441261768341, -0.62378275394439697, -1.8058695793151855, -0.10769516229629517, 0.038105159997940063, 2.5306782722473145, -1.214049220085144, -1.5186011791229248, -2.6589317321777344, -0.013564839959144592, -0.34372898936271667, 3.4853849411010742, -1.5733363628387451, -0.71414870023727417, -18.077281951904297, -1.522870659828186, 1.9269022941589355, -0.49179357290267944, 1.014464259147644, -0.05131249874830246, -0.28695923089981079, -0.91049540042877197, -0.091607272624969482, };
const TfArray<1, int> tensor_dimension14 = { 1, { 96 } };
const ALIGN(16) float tensor_data15[96] = { -0.61441695690155029, 1.5830364227294922, 2.4185764789581299, 0.91046780347824097, -1.0659692287445068, -1.4901666641235352, 3.2993471622467041, 0.71064627170562744, 0.61542987823486328, -0.64224642515182495, 1.9978704452514648, -0.057036366313695908, -2.5289313793182373, 2.8397011756896973, 3.0800511837005615, 1.1445269584655762, 1.8882836103439331, 1.4386395215988159, -1.9463471174240112, -1.7347921133041382, 0.60774004459381104, 2.7386298179626465, 3.0769708156585693, 1.6809487342834473, 0.20351628959178925, 0.47217670083045959, 2.970003604888916, 1.0648866891860962, 0.49932396411895752, -2.0054268836975098, 1.4471179246902466, -0.74754691123962402, -0.090775869786739349, 1.112123966217041, 0.025998901575803757, 0.21219576895236969, 1.8978148698806763, 1.0553669929504395, -0.63225972652435303, 1.8227601051330566, 1.2871412038803101, 2.6011288166046143, 1.5231983661651611, 2.3177981376647949, 1.9080592393875122, 0.99699223041534424, 0.4716649055480957, 2.1807258129119873, 1.3719387054443359, -1.3131872415542603, -1.5772019624710083, 0.10313533246517181, -0.16510845720767975, -0.30281087756156921, 0.77981323003768921, 0.02515590563416481, 0.089029483497142792, -0.28093445301055908, -1.5550453662872314, 1.8550733327865601, -0.74812531471252441, 0.65940338373184204, -0.2892518937587738, -0.76176917552947998, -1.8422082662582397, 1.9255807399749756, 2.1764330863952637, 0.43958649039268494, -1.1359139680862427, 0.32359924912452698, 0.38998404145240784, 0.518047034740448, 1.3572539091110229, -0.4357166588306427, 0.16821804642677307, 2.1661643981933594, -0.10306046903133392, 1.8807092905044556, 1.8359615802764893, -0.19701133668422699, 1.4550745487213135, 0.34774324297904968, -0.079666592180728912, 0.24023804068565369, 1.8132177591323853, 2.3886520862579346, 2.3321945667266846, 0.2860419750213623, 0.7154468297958374, 2.0429503917694092, -0.11064775288105011, -1.9609142541885376, 0.21774385869503021, -1.039929986000061, -0.61264598369598389, -0.42470565438270569, };
const TfArray<1, int> tensor_dimension15 = { 1, { 96 } };
const ALIGN(16) float tensor_data16[16*3*3*3] = { 
  /* [0][0][][] */ 4.8747259224958709e-20,3.7147711957476137e-20,2.2560115283226402e-20, 1.8998144703015219e-20,9.99850122558854e-21,2.4239875557561167e-21, 1.4501873620925392e-20,1.3855346346097105e-20,8.9639567732261252e-21, 
  /* [0][1][][] */ 3.8636523968972215e-20,2.4191955223685994e-20,1.3960823183307553e-20, 2.0533141503907886e-20,1.3445754617976975e-20,2.9473941662847144e-21, 2.0706167654773519e-20,1.8024154072018234e-20,1.7330613211593671e-20, 
  /* [0][2][][] */ 3.1181633015346212e-20,1.1348582769897257e-21,-8.6793048605184484e-21, 1.1872147707964976e-20,-1.0257333632515912e-20,-2.2796315737788639e-20, 1.7555312301349726e-20,6.2228341078998947e-21,2.910896437342946e-21, 
  /* [1][0][][] */ 5.2745518684387207,0.023119481280446053,2.8024282455444336, 0.91102480888366699,-1.8095533847808838,1.2172809839248657, -10.072415351867676,-10.721298217773438,-6.3636651039123535, 
  /* [1][1][][] */ 0.78000092506408691,-0.36508271098136902,-0.1484510600566864, -1.4338637590408325,0.20144589245319366,-0.64530616998672485, 0.44145560264587402,-2.9347109794616699,0.129792720079422, 
  /* [1][2][][] */ 0.016857016831636429,1.5568058490753174,-0.14448092877864838, -0.10577988624572754,0.6618611216545105,-0.22313529253005981, 3.7526614665985107,-1.5996699333190918,1.0740009546279907, 
  /* [2][0][][] */ 2.7242076396942139,-1.4917171001434326,-1.2017765045166016, 7.8584141731262207,10.500200271606445,-0.24336689710617065, 4.0874080657958984,-4.4101572036743164,0.40294912457466125, 
  /* [2][1][][] */ 0.68635439872741699,0.2417590320110321,-0.68963181972503662, 6.8410367965698242,11.456243515014648,-3.2107408046722412, 1.8717899322509766,-1.2606731653213501,-1.1380958557128906, 
  /* [2][2][][] */ 4.6312422752380371,-7.1659150123596191,1.5334359407424927, 7.2736854553222656,-4.7038140296936035,-2.3498494625091553, 2.8458960056304932,-6.1061186790466309,0.9094352126121521, 
  /* [3][0][][] */ 0.1046219989657402,0.46816235780715942,0.16384123265743256, 0.32769584655761719,1.1011258363723755,0.2596467137336731, 0.0044853733852505684,0.06095510721206665,-0.049009744077920914, 
  /* [3][1][][] */ 0.28967985510826111,0.53907173871994019,0.20524798333644867, 0.79129993915557861,1.5315574407577515,0.36406069993972778, -0.1378510445356369,-0.20854237675666809,0.067954905331134796, 
  /* [3][2][][] */ 0.13882386684417725,0.12442309409379959,0.18137583136558533, 0.34784939885139465,0.3519456684589386,0.16440227627754211, 0.024597594514489174,-0.0078720757737755775,0.072675071656703949, 
  /* [4][0][][] */ 0.12449351698160172,0.27531442046165466,-0.065204121172428131, 0.060374081134796143,0.34359249472618103,-0.039413325488567352, -0.052090764045715332,0.052285086363554001,0.002955990144982934, 
  /* [4][1][][] */ 0.10108182579278946,0.31415751576423645,0.13873749971389771, 0.10910242795944214,0.51369208097457886,0.12708522379398346, 0.14056164026260376,0.24430468678474426,-0.041719261556863785, 
  /* [4][2][][] */ 0.18887941539287567,0.31578263640403748,0.13069716095924377, 0.19829435646533966,0.52601027488708496,0.081102944910526276, -0.055949937552213669,0.14495475590229034,0.11407703161239624, 
  /* [5][0][][] */ 0.50754851102828979,0.037125799804925919,-8.6316585540771484, -0.35883203148841858,-0.010966131463646889,-7.452949047088623, -0.28411579132080078,2.1770970821380615,-1.7294501066207886, 
  /* [5][1][][] */ 0.2324192225933075,-3.2020454406738281,-9.224273681640625, -0.19732743501663208,-3.3644547462463379,-8.267359733581543, 0.046421822160482407,1.1041048765182495,-1.3209104537963867, 
  /* [5][2][][] */ -0.2423044741153717,0.51212435960769653,-1.3107200860977173, 0.11804576218128204,-0.21017110347747803,-0.79415982961654663, 0.19337941706180573,1.0416529178619385,-0.60497695207595825, 
  /* [6][0][][] */ 1.3600324392318726,-3.1772017478942871,1.7978541851043701, 2.5105018615722656,-4.429588794708252,2.0649523735046387, 0.5091434121131897,-1.0198426246643066,0.42761525511741638, 
  /* [6][1][][] */ 1.9915876388549805,-4.8594255447387695,3.2260234355926514, 3.3749189376831055,-6.4944734573364258,3.7228796482086182, 0.41050568222999573,-1.4498345851898193,0.84373432397842407, 
  /* [6][2][][] */ 1.1195656061172485,-1.7549201250076294,0.69760262966156006, 0.77720624208450317,-2.2640435695648193,1.3168952465057373, -0.66602683067321777,0.33332577347755432,-0.11644581705331802, 
  /* [7][0][][] */ -2.1114101409912109,1.4282991886138916,0.35423421859741211, -8.7304677963256836,-3.3828072547912598,-0.060163978487253189, -2.1018733978271484,1.5070908069610596,-0.2788718044757843, 
  /* [7][1][][] */ -1.1202065944671631,-0.87619894742965698,-0.1455879807472229, -10.76210880279541,-8.2207660675048828,-0.99082320928573608, -1.0245778560638428,-1.145134449005127,-0.2559572160243988, 
  /* [7][2][][] */ -2.1809871196746826,2.2396447658538818,-1.0268040895462036, -1.2858093976974487,0.59378618001937866,-0.33376964926719666, -2.0392153263092041,1.7384153604507446,-0.64166760444641113, 
  /* [8][0][][] */ 0.15513809025287628,0.20572793483734131,0.19340656697750092, 0.15562696754932404,0.20707656443119049,0.1931598037481308, 0.15175321698188782,0.20488451421260834,0.19530570507049561, 
  /* [8][1][][] */ 0.16234582662582397,0.210004523396492,0.19758622348308563, 0.15756376087665558,0.20778578519821167,0.19464653730392456, 0.14781986176967621,0.20035178959369659,0.19142678380012512, 
  /* [8][2][][] */ 0.15294484794139862,0.20551373064517975,0.19935044646263123, 0.14900791645050049,0.20401924848556519,0.19566763937473297, 0.13835634291172028,0.16215220093727112,0.15558271110057831, 
  /* [9][0][][] */ -0.49924945831298828,0.0057942420244216919,0.26404500007629395, -0.31823700666427612,-0.047529686242341995,0.083986148238182068, 0.045750454068183899,0.13612930476665497,-0.13287654519081116, 
  /* [9][1][][] */ 1.7913235425949097,2.4158151149749756,-0.20396444201469421, 1.2804211378097534,2.7332527637481689,0.3532758355140686, -0.34421923756599426,0.40263742208480835,0.56812119483947754, 
  /* [9][2][][] */ -0.67429614067077637,-0.62482583522796631,0.22491051256656647, -0.073804251849651337,-0.76106935739517212,-0.10655581951141357, 0.044264696538448334,-0.075506500899791718,-0.54186773300170898, 
  /* [10][0][][] */ -1.4713033437728882,-4.9388809204101562,-1.0787266492843628, 2.0009200572967529,5.5929393768310547,1.1881736516952515, -0.51435106992721558,-0.76333504915237427,-0.12848511338233948, 
  /* [10][1][][] */ -3.5050790309906006,-6.1128501892089844,-0.81133508682250977, 4.6563515663146973,7.5202007293701172,0.86423271894454956, -1.0070501565933228,-1.5684853792190552,-0.016453403979539871, 
  /* [10][2][][] */ -1.8744070529937744,-1.1582046747207642,0.12448573857545853, 2.1363921165466309,1.3442134857177734,-0.64806663990020752, -0.51015162467956543,-0.05624162033200264,0.43287542462348938, 
  /* [11][0][][] */ 0.027877753600478172,-0.050566963851451874,0.089178547263145447, 0.16072097420692444,-0.17709743976593018,0.1205168217420578, 0.14615660905838013,-0.56955623626708984,-0.26744705438613892, 
  /* [11][1][][] */ -0.28061032295227051,-0.26473978161811829,-0.12761425971984863, -0.17185138165950775,-0.35880100727081299,-0.2098219245672226, -0.024561179801821709,-0.31721556186676025,-0.29753771424293518, 
  /* [11][2][][] */ 0.0062499972991645336,-0.20052447915077209,-0.45943200588226318, 0.82796818017959595,0.88926255702972412,0.47554785013198853, -0.17481188476085663,0.16473305225372314,-0.23257763683795929, 
  /* [12][0][][] */ -4.1760652664440021e-20,-2.2020060047283041e-20,2.0486425186344246e-20, -3.4100860025796683e-20,-3.0316880308407377e-20,4.7328015203241615e-21, -1.0191137373085362e-20,-2.9338067149815722e-20,9.6326757529255618e-21, 
  /* [12][1][][] */ -2.2377321292549254e-20,-1.1137344752140795e-20,3.4168016751778332e-20, -1.2131639274442976e-20,-2.0993629073507035e-20,2.5905320922096076e-20, -4.2247672213745522e-21,-3.2822045261138238e-20,-1.3655811641538561e-20, 
  /* [12][2][][] */ -1.6506967705637993e-21,-8.1535572642328403e-21,3.8140793981634332e-20, -2.6905146406951138e-20,-2.2071049592815826e-20,1.8881210121851205e-20, -1.7634703868696344e-20,-5.1463665426620299e-20,-3.0031254196657963e-20, 
  /* [13][0][][] */ -1.9236128330230713,-3.6886706352233887,-0.66222268342971802, -2.3150532245635986,-4.2108936309814453,-0.94188261032104492, -0.34201401472091675,-0.66849273443222046,-0.20585702359676361, 
  /* [13][1][][] */ 2.3352701663970947,4.3188886642456055,0.57525926828384399, 2.1892428398132324,4.8059506416320801,0.93609797954559326, 0.29073750972747803,0.58915269374847412,0.41631561517715454, 
  /* [13][2][][] */ -0.30957552790641785,-0.73378974199295044,0.12143701314926147, 0.049579735845327377,-0.70684003829956055,-0.05811639130115509, 0.023045912384986877,0.1517186164855957,-0.14095495641231537, 
  /* [14][0][][] */ 1.9652351140975952,-0.24694846570491791,-1.6191970109939575, 3.3885042667388916,-1.1036415100097656,-2.1533527374267578, 1.4564634561538696,-0.30876052379608154,-0.77810961008071899, 
  /* [14][1][][] */ 3.8271875381469727,-0.70108723640441895,-3.175501823425293, 5.4809350967407227,-1.6859896183013916,-3.7845654487609863, 2.5995998382568359,-0.70142346620559692,-1.514926552772522, 
  /* [14][2][][] */ 2.3803508281707764,-0.36763757467269897,-1.94877028465271, 3.2028031349182129,-0.86700862646102905,-2.2357919216156006, 1.1473442316055298,-0.20129254460334778,-0.72437947988510132, 
  /* [15][0][][] */ -5.564143093696401e-19,-5.4188731175319554e-19,-4.8537009300293336e-19, -5.2335918981504371e-19,-4.9507674729851343e-19,-4.302563154088381e-19, -4.8131256530320762e-19,-4.9221888998093101e-19,-4.4264156147362387e-19, 
  /* [15][1][][] */ -2.4383692135384091e-19,-2.1926717561917833e-19,-1.6843370872822407e-19, -2.7075355943207543e-19,-2.6370768667313702e-19,-2.2145082903874176e-19, -2.0087568065376553e-19,-1.8880159667096748e-19,-1.7710207040929109e-19, 
  /* [15][2][][] */ -9.6040703286915722e-20,-1.3223456613819311e-19,-1.1152797358400338e-19, -1.5032742305308013e-19,-1.5665035288134426e-19,-1.4964530924045359e-19, -1.8440829826603056e-19,-1.6591260439283022e-19,-1.37512262789617e-19, 
};
const TfArray<4, int> tensor_dimension16 = { 4, { 16,3,3,3 } };
const ALIGN(16) float tensor_data17[8*1*1*16] = { 
  /* [0][0][][] */ -1.4402250055901037e-20,-1.8144029378890991,-0.35742735862731934,0.081068627536296844,12.379802703857422,-0.38546490669250488,-0.17957022786140442,-0.34683150053024292,0.008927798829972744,-12.353836059570312,-8.8826370239257812,-0.87683725357055664,1.2990743888761722e-20,12.304353713989258,-0.52092647552490234,2.6142049673651096e-20, 
  /* [1][0][][] */ 1.1256834384357061e-20,-2.5930485725402832,-0.29392892122268677,8.5786609649658203,7.3959689140319824,1.2318794727325439,2.1736702919006348,-0.079217150807380676,0.0055815638042986393,-0.40333458781242371,12.320185661315918,-4.1803121566772461,2.4023436560923921e-20,2.769484281539917,-1.7114913463592529,-1.5794685509394456e-19, 
  /* [2][0][][] */ 4.5351364539763153e-21,0.12260616570711136,0.011468077078461647,-1.6537548303604126,-7.452934741973877,0.78242814540863037,1.966480016708374,0.43159037828445435,0.038080152124166489,0.79637038707733154,-2.2391068935394287,0.75691086053848267,1.1996471984679416e-20,16.407857894897461,-0.97989249229431152,-4.8604599649861722e-21, 
  /* [3][0][][] */ -1.0946302381351559e-20,-0.65077990293502808,-1.1201087236404419,-7.6781425476074219,5.151097297668457,1.3341463804244995,3.8919098377227783,0.93996429443359375,-0.090089514851570129,3.6328721046447754,-0.39169815182685852,2.6643607616424561,-8.2281634624888681e-21,-0.11244876682758331,1.3330693244934082,-3.2413340490354616e-20, 
  /* [4][0][][] */ -6.1764915968093598e-22,2.2514791488647461,-1.1696459054946899,1.8788756132125854,-2.7507150173187256,1.9510650634765625,6.863494873046875,0.83773839473724365,0.049225904047489166,-2.9567408561706543,1.1704084873199463,-0.60621136426925659,-1.392746130899267e-20,-0.093189321458339691,1.1200367212295532,2.8153512200897109e-20, 
  /* [5][0][][] */ -6.2217985165470696e-21,-1.3419381380081177,-0.833629310131073,0.31927502155303955,-1.909149169921875,-1.9486132860183716,-1.2742438316345215,1.2660671472549438,0.017586575821042061,1.0267446041107178,-0.60569208860397339,-4.0564603805541992,-2.0089751692946722e-20,-0.26375025510787964,11.119951248168945,-1.1058235104749042e-19, 
  /* [6][0][][] */ -1.1232996396196476e-20,1.0864219665527344,-0.059278883039951324,-0.0075372243300080299,4.1636919975280762,-1.7115119695663452,-1.9160528182983398,-0.54858845472335815,-0.023561146110296249,-8.87005615234375,9.5725574493408203,5.4473133087158203,7.0970133618682095e-21,10.203201293945312,4.8878321647644043,4.564856310215264e-20, 
  /* [7][0][][] */ 5.9269942542900115e-21,0.65391349792480469,-1.1950746774673462,7.6605019569396973,0.57787930965423584,-0.2123183012008667,0.74773383140563965,0.44965049624443054,0.08880922943353653,4.2656979560852051,-3.0123875141143799,4.400665283203125,4.3262135725827218e-21,-0.41479513049125671,2.7871448993682861,-4.2276651807959721e-20, 
};
const TfArray<4, int> tensor_dimension17 = { 4, { 8,1,1,16 } };
const ALIGN(16) float tensor_data18[48*1*1*8] = { 
  /* [0][0][][] */ 0.01379817072302103,-0.11675234884023666,0.049722597002983093,-0.039950355887413025,0.032405227422714233,-0.016396725550293922,-0.050305332988500595,0.017125703394412994, 
  /* [1][0][][] */ 0.066617399454116821,0.078495979309082031,-0.01772703230381012,-0.10772272199392319,0.010580975562334061,-0.01028317678719759,-0.07753443717956543,0.11177287995815277, 
  /* [2][0][][] */ 0.021694736555218697,0.0067615401931107044,-0.030259193852543831,0.081276819109916687,0.028806870803236961,0.081348374485969543,0.031078280881047249,0.062451727688312531, 
  /* [3][0][][] */ 0.044143304228782654,0.035376619547605515,-0.045653212815523148,0.064540162682533264,-0.056834015995264053,-0.0074800294823944569,-0.0064766970463097095,0.008587399497628212, 
  /* [4][0][][] */ -0.024928359314799309,-0.06245848536491394,0.046046879142522812,0.0063250097446143627,0.0022476513404399157,0.01831207238137722,-0.021118290722370148,-0.080281533300876617, 
  /* [5][0][][] */ 0.011906904168426991,0.00072153267683461308,-0.021465441212058067,0.024496918544173241,0.00073294044705107808,-0.017990509048104286,0.024989308789372444,0.074305690824985504, 
  /* [6][0][][] */ 0.047604437917470932,-0.013965924270451069,-0.097346231341362,-0.06529524177312851,0.080173686146736145,0.0093842893838882446,0.039878346025943756,-0.029337495565414429, 
  /* [7][0][][] */ 0.3203359842300415,0.055284980684518814,0.074845045804977417,-0.038777437061071396,0.090039901435375214,-0.020934987813234329,0.20599308609962463,-0.1535191684961319, 
  /* [8][0][][] */ 0.021339965984225273,-0.095242105424404144,0.012858331203460693,0.092819876968860626,0.0037087509408593178,0.030071623623371124,-0.0070463945157825947,-0.11777054518461227, 
  /* [9][0][][] */ 0.49836599826812744,-0.57250231504440308,0.077378310263156891,0.0065545979887247086,-0.080832667648792267,0.05401129275560379,-0.54925048351287842,0.40556046366691589, 
  /* [10][0][][] */ -0.14389036595821381,-0.057734563946723938,-0.14012427628040314,0.031987912952899933,-0.017892023548483849,0.012963423505425453,-0.13442999124526978,0.091749027371406555, 
  /* [11][0][][] */ -0.096958853304386139,-0.19500170648097992,-0.032370012253522873,-0.4259430468082428,-0.48543375730514526,-0.13968616724014282,0.17253728210926056,-0.04936203733086586, 
  /* [12][0][][] */ 0.0063204057514667511,0.00043600800563581288,-0.014616052620112896,0.019480418413877487,-0.027650248259305954,-0.0086203543469309807,0.020635247230529785,0.041001792997121811, 
  /* [13][0][][] */ -8.1376205068989481e-22,-1.1875322336683075e-20,-1.5763542159331835e-20,-1.8739778392975976e-20,2.1348846601048874e-20,-1.8020161956210386e-20,1.7291028095639034e-20,6.2774146997345399e-21, 
  /* [14][0][][] */ -0.0051294546574354172,-0.066538825631141663,-0.014164897613227367,0.0045777484774589539,0.071218587458133698,0.2237267792224884,0.070963479578495026,0.085784949362277985, 
  /* [15][0][][] */ 0.012238571420311928,0.0045081432908773422,0.0077527472749352455,-0.046415645629167557,0.023624436929821968,0.018440501764416695,-0.018710730597376823,0.024046573787927628, 
  /* [16][0][][] */ -1.522471456766184e-21,-1.2470005420384748e-20,-9.9349206017277624e-21,-1.6505102712240305e-21,1.5713706143012649e-20,-2.4986746545378742e-20,-1.2491979020992822e-20,-1.450118376521922e-20, 
  /* [17][0][][] */ 0.16562740504741669,0.35121056437492371,1.6072151660919189,0.3627275824546814,-0.24763333797454834,-0.14315357804298401,0.22058989107608795,0.405721515417099, 
  /* [18][0][][] */ 0.078628264367580414,-0.11160140484571457,0.023686785250902176,0.02771986648440361,-0.0093111647292971611,0.027111122384667397,-0.1010768786072731,0.0035900273360311985, 
  /* [19][0][][] */ -0.088719382882118225,-0.011001450940966606,0.016319010406732559,0.043718863278627396,-0.036664266139268875,-0.03616013377904892,-0.064203545451164246,0.047476138919591904, 
  /* [20][0][][] */ 0.017918124794960022,0.011264786124229431,-0.025176189839839935,0.051604732871055603,-0.012226981110870838,-0.064772732555866241,-0.0017333216965198517,0.028163349255919456, 
  /* [21][0][][] */ 0.48725578188896179,0.17421676218509674,1.1282987594604492,0.10142318904399872,-0.15116077661514282,-0.11648508906364441,0.62912392616271973,0.1239815428853035, 
  /* [22][0][][] */ -0.05123249813914299,-0.0055106142535805702,-0.081207722425460815,0.0039466614834964275,-0.0019904274959117174,0.0089659132063388824,-0.058831125497817993,0.00026094104396179318, 
  /* [23][0][][] */ -0.30649122595787048,0.3815503716468811,-0.047812800854444504,-0.057916387915611267,0.014429322443902493,-0.034040138125419617,0.35491988062858582,-0.236855149269104, 
  /* [24][0][][] */ 0.017819734290242195,-0.10762457549571991,-0.10353245586156845,0.18121950328350067,-0.02494855597615242,-0.12146109342575073,0.19698819518089294,0.2613694965839386, 
  /* [25][0][][] */ 0.011711975559592247,0.059804949909448624,0.052381429821252823,0.050320606678724289,0.16500107944011688,0.18120817840099335,-0.097116224467754364,-0.072981275618076324, 
  /* [26][0][][] */ -0.36891978979110718,-0.1417117714881897,-0.52146953344345093,-0.022483218461275101,0.037840165197849274,0.067272745072841644,-0.43189051747322083,-0.014172778464853764, 
  /* [27][0][][] */ -0.0056114089675247669,-0.10694166272878647,-0.11926987022161484,0.0050526345148682594,-0.12342119961977005,0.40756127238273621,0.19348914921283722,0.15142552554607391, 
  /* [28][0][][] */ -0.0034088878892362118,-0.0070868078619241714,-0.012677416205406189,0.01617913693189621,0.01227040309458971,0.082313299179077148,0.029406711459159851,0.03237948939204216, 
  /* [29][0][][] */ 0.28661969304084778,0.087704785168170929,0.45534035563468933,-0.012299566529691219,-0.052752133458852768,-0.04609033465385437,0.2324117124080658,-0.03849436342716217, 
  /* [30][0][][] */ -0.20327040553092957,0.30867704749107361,-0.061366770416498184,-0.059397362172603607,0.031326640397310257,-0.015887565910816193,0.24327383935451508,-0.12741859257221222, 
  /* [31][0][][] */ -0.017233086749911308,-0.034270931035280228,-0.0075673745013773441,0.0021365333814173937,0.012717167846858501,-0.023603955283761024,0.043784234672784805,0.036643467843532562, 
  /* [32][0][][] */ 0.00062274961965158582,0.00035832801950164139,-0.022258937358856201,0.045629721134901047,-0.005049816332757473,0.036802258342504501,0.031731005758047104,0.047728687524795532, 
  /* [33][0][][] */ 0.031640253961086273,1.3415976762771606,-0.27773535251617432,-2.2409384250640869,0.23240181803703308,-0.29337137937545776,-0.15425091981887817,2.7667293548583984, 
  /* [34][0][][] */ -0.019098836928606033,0.093795530498027802,-0.0031899858731776476,-0.098607085645198822,0.034065630286931992,-0.01314912922680378,0.010455186478793621,0.14079700410366058, 
  /* [35][0][][] */ 0.14502686262130737,0.025350458920001984,-0.0023703435435891151,-0.04591108113527298,0.024781506508588791,0.02511286735534668,0.10079371184110641,-0.055918138474225998, 
  /* [36][0][][] */ -0.83393406867980957,-0.10647616535425186,0.2415698915719986,0.47673580050468445,-0.28420114517211914,-0.0010876671876758337,-1.0726579427719116,0.50047421455383301, 
  /* [37][0][][] */ -0.0058728293515741825,-0.011754159815609455,-0.0014182913582772017,0.021704103797674179,0.017228946089744568,0.085728086531162262,0.02872234582901001,0.038441706448793411, 
  /* [38][0][][] */ 0.071871928870677948,0.10753269493579865,0.059737112373113632,0.41432628035545349,0.69160193204879761,-0.009998491033911705,-0.091111026704311371,0.18641531467437744, 
  /* [39][0][][] */ 0.0028072872664779425,0.016370782628655434,0.021134361624717712,-0.063554242253303528,0.010770402848720551,-0.0033527954947203398,-0.024602852761745453,0.067707575857639313, 
  /* [40][0][][] */ 0.2280515730381012,0.06825682520866394,0.31596708297729492,0.024274950847029686,-0.028706964105367661,-0.0019146989798173308,0.18801011145114899,0.0032132202759385109, 
  /* [41][0][][] */ 0.0014855857007205486,-0.009093528613448143,-0.010235665366053581,0.0306675024330616,0.01635429821908474,0.043601531535387039,0.024961957708001137,0.039649408310651779, 
  /* [42][0][][] */ -0.074264831840991974,-0.00089608365669846535,0.11927466839551926,0.024362003430724144,-0.038421496748924255,0.0099890707060694695,-0.020929610356688499,0.053142845630645752, 
  /* [43][0][][] */ -0.14736366271972656,-1.1831886768341064,0.10601624101400375,1.9067990779876709,-0.34696370363235474,0.020706215873360634,0.24330592155456543,-2.5605261325836182, 
  /* [44][0][][] */ 0.043681249022483826,0.0015192863065749407,-0.053806520998477936,-0.094952687621116638,0.070212244987487793,-0.003352341940626502,0.0096140513196587563,-0.082992233335971832, 
  /* [45][0][][] */ -0.088117979466915131,0.12875744700431824,-0.0030216712038964033,-0.054423496127128601,0.0074892384000122547,-0.0093411244451999664,0.066475369036197662,-0.063180983066558838, 
  /* [46][0][][] */ -0.073403649032115936,-0.0077051166445016861,0.032070521265268326,0.02500261552631855,-0.020506095141172409,0.022257179021835327,-0.048709660768508911,0.033169038593769073, 
  /* [47][0][][] */ 0.039387121796607971,0.0066415476612746716,0.043216027319431305,0.0022647089790552855,0.013369027525186539,-0.015708371996879578,0.050163861364126205,-0.0072369989939033985, 
};
const TfArray<4, int> tensor_dimension18 = { 4, { 48,1,1,8 } };
const ALIGN(16) float tensor_data19[8*1*1*48] = { 
  /* [0][0][][] */ -0.88523185253143311,-0.12594836950302124,0.69304406642913818,-5.596839427947998,0.62623804807662964,1.5229911804199219,0.51122194528579712,0.48718789219856262,0.36857500672340393,0.23465149104595184,0.18581767380237579,0.079936899244785309,5.4920005798339844,7.5209705878603247e-22,-0.00070950051303952932,0.41669577360153198,-2.559265109341565e-21,-0.31356087327003479,-0.14269773662090302,-0.2025972455739975,4.3015756607055664,-0.29318517446517944,0.069521874189376831,0.32874661684036255,1.6032760143280029,2.1191308498382568,0.8294062614440918,0.85303777456283569,0.37697768211364746,-0.052111241966485977,0.41733533143997192,-7.4043660163879395,0.69276469945907593,0.29679742455482483,-0.31007722020149231,-0.078710697591304779,-1.2484186887741089,0.057251483201980591,-0.98069107532501221,2.1230285167694092,0.44077783823013306,-1.7990125417709351,-0.63499999046325684,0.25184851884841919,-0.19361306726932526,-0.17820100486278534,0.2522137463092804,-0.030154988169670105, 
  /* [1][0][][] */ -1.1482886075973511,-0.2307010143995285,-0.077471889555454254,-0.20216304063796997,1.5363680124282837,0.6990780234336853,-0.84147602319717407,2.0297102928161621,0.5779845118522644,0.12787854671478271,-0.65682917833328247,-0.61049234867095947,0.34361210465431213,3.9837331825431984e-22,0.50956195592880249,1.2757761478424072,1.7603788296224763e-22,1.1436066627502441,0.68226873874664307,-1.4784055948257446,-0.027574209496378899,0.5809289813041687,3.8449671268463135,0.4682101309299469,-0.7773888111114502,-0.031080109998583794,1.5467772483825684,0.14009767770767212,0.60497581958770752,-0.052202645689249039,0.60267835855484009,-0.32525861263275146,0.50389015674591064,-0.34874492883682251,-0.091956786811351776,-0.6458892822265625,0.27338874340057373,-1.6103525161743164,0.33363011479377747,0.098802380263805389,-0.2781197726726532,-0.15218813717365265,-2.3218162059783936,-0.32903102040290833,-0.88331311941146851,0.10455228388309479,-1.4940592050552368,-2.7411983013153076, 
  /* [2][0][][] */ -3.8533115386962891,0.93953025341033936,0.093896269798278809,0.67371159791946411,2.8245062828063965,-0.59385854005813599,1.8405052423477173,1.5274728536605835,-0.5666191577911377,3.2424230575561523,0.3667791485786438,-0.18978594243526459,0.10868499428033829,-3.4956515361584569e-21,0.40730580687522888,3.3400781154632568,3.6287032145701846e-21,0.76742279529571533,-7.8875603675842285,1.3198980093002319,0.049819894134998322,0.88738322257995605,0.35326075553894043,-1.0529294013977051,-2.0311601161956787,0.27642202377319336,2.0213494300842285,0.49055477976799011,0.058570843189954758,2.2226247787475586,1.0878915786743164,0.3104289174079895,0.49465483427047729,-0.45904728770256042,-0.4956706166267395,-0.80451947450637817,0.882904052734375,0.69631201028823853,0.41599664092063904,0.12913066148757935,2.1395149230957031,-0.48665818572044373,-1.9465948343276978,-0.23022578656673431,1.5215684175491333,-3.4403572082519531,1.5809299945831299,0.69806921482086182, 
  /* [3][0][][] */ 0.015324188396334648,0.035221319645643234,0.16804112493991852,0.5173790454864502,-0.27565202116966248,1.7968111038208008,-0.066182129085063934,-0.34413716197013855,4.1096587181091309,0.97955703735351562,-0.093689329922199249,0.12301070243120193,1.5455622673034668,3.1824962235442959e-21,-1.7775514125823975,-0.45745950937271118,1.5909612440816861e-21,-0.14912892878055573,-0.64682388305664062,0.23273506760597229,-0.10245361179113388,0.11752815544605255,0.30236175656318665,-0.95800697803497314,-0.692454993724823,-0.48821437358856201,-0.81784403324127197,-0.18361341953277588,-0.27040198445320129,-0.11226996779441833,-0.20207750797271729,-0.38007867336273193,-2.9622080326080322,2.0295934677124023,-3.2026958465576172,-0.1160912960767746,0.53877776861190796,-0.084102362394332886,0.097887925803661346,-7.5104241371154785,0.32599511742591858,0.23509444296360016,-0.085618764162063599,-2.4501395225524902,-0.0073320348747074604,-0.29277113080024719,0.0017807267140597105,0.35424038767814636, 
  /* [4][0][][] */ -0.12059544026851654,-0.12985914945602417,3.2437324523925781,1.5832120180130005,0.36751449108123779,-0.77064222097396851,-0.15988092124462128,-0.28703451156616211,0.3896404504776001,-0.39280992746353149,-0.17416565120220184,-0.61376732587814331,-3.7318353652954102,-5.5134591808986376e-22,-0.53905338048934937,0.22753004729747772,-1.2852359157221015e-21,0.14831358194351196,0.290435791015625,0.17207670211791992,2.8969862461090088,0.11821381002664566,0.068129636347293854,-0.16624955832958221,-0.7197832465171814,1.2742890119552612,-0.32832804322242737,1.8713655471801758,-0.21966561675071716,-0.0068587660789489746,0.071342721581459045,4.4800624847412109,0.10169719159603119,0.1259867250919342,0.11826004832983017,-0.092874251306056976,0.43038833141326904,-0.86321026086807251,-0.60579985380172729,-0.97898900508880615,-0.17882326245307922,-5.5498981475830078,0.14931498467922211,0.016273725777864456,0.14211852848529816,-0.33076152205467224,-0.12119673937559128,0.18340899050235748, 
  /* [5][0][][] */ -0.40831661224365234,2.3217620849609375,0.17146170139312744,-0.32216435670852661,0.16987468302249908,2.3241145610809326,1.3519209623336792,0.37333756685256958,-1.0236141681671143,1.4086319208145142,0.38906675577163696,2.603532075881958,1.1870558261871338,-6.7152687013814203e-22,-6.2751407623291016,-0.070062726736068726,-2.1445572206651809e-21,0.50133049488067627,-1.7896841764450073,1.1197093725204468,-0.5832328200340271,0.45689007639884949,-0.76628649234771729,1.7463850975036621,-1.0176725387573242,-0.17528696358203888,1.289981484413147,-0.26929441094398499,-0.96062165498733521,1.2282428741455078,1.0361202955245972,-0.74924206733703613,2.3882489204406738,1.3724386692047119,-1.6540625095367432,-0.087382130324840546,0.22801752388477325,0.86472606658935547,-2.3307569026947021,0.70485031604766846,1.3287369012832642,-0.54717659950256348,-0.40871670842170715,1.3474503755569458,1.1120721101760864,2.7627894878387451,1.1505001783370972,1.3570438623428345, 
  /* [6][0][][] */ -0.6862674355506897,-2.2171449661254883,0.16735561192035675,0.34623488783836365,1.3995249271392822,-1.659909725189209,-0.79822856187820435,0.30725476145744324,1.164192795753479,-1.0658984184265137,-0.47444319725036621,3.2925455570220947,-0.2747349739074707,-2.4132247162185157e-22,-4.7612338066101074,1.5084584951400757,-8.07588942738389e-22,-0.32036396861076355,1.9051753282546997,-0.74656754732131958,-0.23634374141693115,0.1365642249584198,0.91576719284057617,-1.101894736289978,1.0271676778793335,-0.16887478530406952,-0.13738729059696198,-0.31783735752105713,2.0065062046051025,-0.46711260080337524,-0.51619088649749756,-0.23835808038711548,3.5229105949401855,-1.185142993927002,0.98183059692382812,-0.039549916982650757,-0.029004087671637535,-0.27230429649353027,-2.7362573146820068,-0.59916454553604126,-0.51348167657852173,-0.52632611989974976,-0.15356297791004181,-0.94160568714141846,-0.80036169290542603,-2.9390158653259277,-0.65844357013702393,-1.0791096687316895, 
  /* [7][0][][] */ -3.0171141624450684,-0.75384306907653809,-0.27887222170829773,0.1875787228345871,3.4692399501800537,0.60289812088012695,1.7092872858047485,0.71038472652435303,0.54646760225296021,0.061846751719713211,0.64743566513061523,-0.89999568462371826,-0.76303386688232422,-5.8151826999275702e-22,2.279712438583374,2.8633055686950684,-6.4991859417071981e-22,0.30634784698486328,0.0254337377846241,1.5857421159744263,-0.29843524098396301,0.014438784681260586,-0.72939926385879517,1.1550540924072266,0.42200362682342529,0.25493279099464417,1.1100363731384277,0.12525889277458191,1.2173500061035156,1.7727276086807251,1.4987143278121948,-0.16492141783237457,-0.33670538663864136,-0.45218166708946228,-0.34761294722557068,-0.6853364109992981,0.27025717496871948,0.77780163288116455,0.84855884313583374,0.98016464710235596,2.0705528259277344,0.13430124521255493,-0.75145834684371948,-0.39675840735435486,1.6580843925476074,0.023323068395256996,1.7164047956466675,1.9674471616744995, 
};
const TfArray<4, int> tensor_dimension19 = { 4, { 8,1,1,48 } };
const ALIGN(16) float tensor_data20[48*1*1*8] = { 
  /* [0][0][][] */ 0.015141905285418034,0.00412776879966259,-0.00072402582736685872,-0.0031464246567338705,0.026153950020670891,0.0064224973320960999,-0.0087752332910895348,-0.0033484811428934336, 
  /* [1][0][][] */ -0.0027335796039551497,-0.0033181789331138134,0.004864515271037817,0.088287070393562317,0.0075301202014088631,-0.0042573665268719196,0.0039598783478140831,0.012394056655466557, 
  /* [2][0][][] */ 0.026170602068305016,-0.08638317883014679,-0.019928388297557831,0.02823377400636673,-0.0058747767470777035,-0.053037676960229874,0.071283765137195587,0.020932843908667564, 
  /* [3][0][][] */ 0.13151936233043671,-0.035603698343038559,-0.012802988290786743,0.016847202554345131,-0.019000649452209473,-0.030756955966353416,0.028697047382593155,0.00012609048280864954, 
  /* [4][0][][] */ 0.017606634646654129,-0.14468403160572052,0.42720478773117065,-0.041385084390640259,-0.033964179456233978,-0.15341517329216003,0.023117318749427795,-0.30226269364356995, 
  /* [5][0][][] */ 0.065206408500671387,0.00026965478900820017,0.019326856359839439,0.0043897065334022045,0.18107835948467255,0.022380834445357323,-0.018991343677043915,0.011992425657808781, 
  /* [6][0][][] */ -0.028343291953206062,0.25041136145591736,-0.043722756206989288,0.36076363921165466,0.056202802807092667,0.11343441158533096,-0.20964100956916809,-0.14106203615665436, 
  /* [7][0][][] */ -0.028849350288510323,0.32902798056602478,-0.033962879329919815,0.0041661090217530727,0.014957185834646225,-0.016098419204354286,0.013340290635824203,-0.022416286170482635, 
  /* [8][0][][] */ 0.17945367097854614,0.069803863763809204,-0.0018829727778211236,0.0016509776469320059,-0.074218295514583588,-0.014128590002655983,0.016421090811491013,-0.055814098566770554, 
  /* [9][0][][] */ -0.17360615730285645,0.01205026637762785,0.01019471138715744,0.029419576749205589,0.06153898686170578,0.0040631401352584362,-0.019761048257350922,0.022588793188333511, 
  /* [10][0][][] */ -0.10145063698291779,-0.016500318422913551,0.042632222175598145,0.17880405485630035,0.046256676316261292,0.04462885856628418,-0.026290392503142357,-0.016606768593192101, 
  /* [11][0][][] */ -0.16432885825634003,0.013857318088412285,0.012741819024085999,-0.082909874618053436,0.019022980704903603,-0.016839003190398216,-0.040024977177381516,-0.060479499399662018, 
  /* [12][0][][] */ 0.14725278317928314,0.043039392679929733,0.014117271639406681,0.014184826053678989,-0.04739714041352272,-0.017029181122779846,0.015274184755980968,-0.069886632263660431, 
  /* [13][0][][] */ -0.018799075856804848,0.096095003187656403,-0.16919109225273132,-0.012058020569384098,0.01256585493683815,0.13917838037014008,-0.091885708272457123,0.10074681788682938, 
  /* [14][0][][] */ -0.057250894606113434,-0.039472352713346481,0.0058404183946549892,0.15836994349956512,0.032417666167020798,0.012513097375631332,0.010660676285624504,-0.029129777103662491, 
  /* [15][0][][] */ -0.0039091212674975395,0.51794612407684326,-0.0036187884397804737,-0.022907255217432976,0.0077445907518267632,-0.067839011549949646,0.048955105245113373,-0.2030540406703949, 
  /* [16][0][][] */ -0.0028763210866600275,-0.13732551038265228,-0.0088981436565518379,0.0085362652316689491,-0.0048559326678514481,-0.09705439954996109,0.1399848461151123,-0.020664012059569359, 
  /* [17][0][][] */ 0.018456935882568359,0.15538649260997772,0.0012101619504392147,-0.005914000328630209,0.0087086539715528488,0.086643911898136139,-0.10019872337579727,-0.019514961168169975, 
  /* [18][0][][] */ -0.02789202518761158,0.19426731765270233,-0.57339918613433838,0.018457455560564995,0.027927197515964508,0.28444138169288635,-0.19130602478981018,0.31426677107810974, 
  /* [19][0][][] */ -0.025781488046050072,0.0030639329925179482,0.0029490077868103981,0.0011068029562011361,-0.03922656923532486,0.00040561374044045806,0.0013511533616110682,0.008384370245039463, 
  /* [20][0][][] */ -0.084199994802474976,-0.010070530697703362,8.4548642917070538e-05,0.0033477172255516052,0.056354977190494537,-0.029605623334646225,0.025764737278223038,-0.0050529562868177891, 
  /* [21][0][][] */ -0.047550316900014877,-0.0097211915999650955,-0.0060769948177039623,0.0028842107858508825,-0.1296122819185257,0.0054134922102093697,0.011810475029051304,-0.0017744975630193949, 
  /* [22][0][][] */ -0.13422772288322449,-0.020880257710814476,0.00034347016480751336,-0.012581977061927319,0.10373776406049728,-0.023119471967220306,0.034061569720506668,0.051785614341497421, 
  /* [23][0][][] */ -0.047913532704114914,-0.057493746280670166,0.001164634246379137,-0.021609317511320114,-0.0046231197193264961,0.19890907406806946,-0.30022242665290833,-0.21854789555072784, 
  /* [24][0][][] */ -0.0088304551318287849,0.030484765768051147,-0.10383868962526321,0.005611711647361517,0.0077055990695953369,0.043147426098585129,-0.015406269580125809,0.067141085863113403, 
  /* [25][0][][] */ 0.056619115173816681,-0.014047956094145775,0.00056817429140210152,0.074698269367218018,-0.041729576885700226,-0.01597718708217144,0.013984018005430698,-0.023279795423150063, 
  /* [26][0][][] */ -0.00038949062582105398,-0.0082547394558787346,-0.0034579120110720396,-0.0011772566940635443,-0.0028875661082565784,0.044261913746595383,0.045998390763998032,-0.010649090632796288, 
  /* [27][0][][] */ 0.074695676565170288,-0.0090305991470813751,-0.0010797387221828103,0.02156350389122963,0.13140468299388885,0.027588559314608574,0.039925131946802139,-0.014154255390167236, 
  /* [28][0][][] */ -0.009664563462138176,0.24490217864513397,-0.17761620879173279,-0.001237020012922585,0.023721834644675255,0.17838972806930542,-0.051392719149589539,0.29931426048278809, 
  /* [29][0][][] */ -0.0056369476951658726,0.039744950830936432,-0.016397355124354362,-0.014925545081496239,-0.012424121610820293,0.22785063087940216,-0.33506768941879272,-0.23305201530456543, 
  /* [30][0][][] */ 0.0070047033950686455,-0.001019534538500011,-0.0044023874215781689,-0.15651682019233704,-0.0074429567903280258,-0.0021372509654611349,-0.00031042870250530541,-0.018405729904770851, 
  /* [31][0][][] */ -0.055114142596721649,0.0048139519058167934,0.0034707090817391872,-0.0052427370101213455,-0.14010314643383026,0.01126980222761631,0.0088076461106538773,-0.0056246980093419552, 
  /* [32][0][][] */ -0.021586254239082336,0.070681348443031311,0.026449624449014664,-0.29487454891204834,-0.04316316545009613,0.089196935296058655,-0.21845632791519165,-0.24699185788631439, 
  /* [33][0][][] */ -0.037083040922880173,-0.0055545237846672535,-0.0061350767500698566,-0.0041961357928812504,-0.072536148130893707,0.02508089691400528,0.0218496173620224,-0.00036489509511739016, 
  /* [34][0][][] */ -0.093858547508716583,0.064650878310203552,0.00084646604955196381,0.0073549384251236916,0.030382823199033737,-0.026902567595243454,0.020751716569066048,0.0024838263634592295, 
  /* [35][0][][] */ -0.013918232172727585,0.067481905221939087,-0.0067384215071797371,-0.007749670185148716,-0.0027132881805300713,-0.050322636961936951,0.044891770929098129,-0.0075518176890909672, 
  /* [36][0][][] */ -0.0098905432969331741,0.054786328226327896,0.015366444364190102,-0.037275273352861404,0.0018912509549409151,0.14585338532924652,-0.19027914106845856,-0.030539464205503464, 
  /* [37][0][][] */ 0.038014233112335205,-0.050732254981994629,-0.0089800786226987839,0.017507541924715042,0.012957756407558918,-0.090380899608135223,0.11533647775650024,-0.013611320406198502, 
  /* [38][0][][] */ 0.0039657703600823879,-0.027994634583592415,0.0015887592453509569,0.00041220281855203211,-0.00024936592672020197,0.013408343307673931,-0.01189469825476408,0.013638825155794621, 
  /* [39][0][][] */ 0.023142851889133453,-0.64111459255218506,-0.087873399257659912,-0.020123418420553207,-0.01391688734292984,-0.043231308460235596,-0.31028327345848083,-0.54217249155044556, 
  /* [40][0][][] */ 0.19605867564678192,0.076049447059631348,0.033741801977157593,-0.018525224179029465,-0.089402265846729279,0.10766785591840744,-0.20302829146385193,-0.16991284489631653, 
  /* [41][0][][] */ 0.010115266777575016,-0.25980442762374878,0.053092639893293381,0.022409545257687569,-0.0039496901445090771,0.16006065905094147,-0.14823955297470093,0.24318066239356995, 
  /* [42][0][][] */ 0.060869079083204269,-0.0044434037990868092,0.014692467637360096,-0.10730186849832535,-0.049796126782894135,0.014395850710570812,0.0040365490131080151,-0.043398745357990265, 
  /* [43][0][][] */ -0.075463689863681793,-0.031170224770903587,0.021803179755806923,-0.1408606618642807,0.068637028336524963,0.0030877001117914915,0.0080905752256512642,0.010760439559817314, 
  /* [44][0][][] */ -0.0011251977412030101,-0.018229501321911812,-0.0089581683278083801,0.0083513436838984489,-0.020979747176170349,0.055501546710729599,0.082837775349617004,-0.0056475028395652771, 
  /* [45][0][][] */ -0.14748744666576385,-0.042915321886539459,-0.0069371084682643414,0.015481856651604176,0.009906022809445858,0.019897215068340302,0.043885894119739532,-0.01259645726531744, 
  /* [46][0][][] */ 0.027101723477244377,0.18555834889411926,0.25449767708778381,0.028959594666957855,0.0023435906041413546,0.030281681567430496,0.043528474867343903,0.04888993501663208, 
  /* [47][0][][] */ -0.01438246201723814,0.0056401509791612625,0.018766473978757858,0.30610159039497375,0.039901603013277054,0.015801079571247101,0.023260286077857018,-0.0038399975746870041, 
};
const TfArray<4, int> tensor_dimension20 = { 4, { 48,1,1,8 } };
const ALIGN(16) float tensor_data21[8*1*1*48] = { 
  /* [0][0][][] */ -1.2705367803573608,-0.31373345851898193,-0.84392005205154419,0.51405763626098633,0.22855395078659058,-0.53835248947143555,0.15834975242614746,0.02636980265378952,-2.8194756507873535,2.8593385219573975,-0.61053925752639771,2.5514881610870361,2.4868271350860596,0.3005104660987854,1.813506007194519,-0.30171540379524231,0.027471484616398811,-0.75304323434829712,-0.011429051868617535,0.39990302920341492,-0.10731486231088638,0.21670457720756531,-0.48913237452507019,-0.815204918384552,0.69010424613952637,-2.1061646938323975,0.10669657588005066,1.3179862499237061,-0.19210085272789001,0.13627606630325317,0.40898305177688599,-0.53571051359176636,0.060076989233493805,-1.4649931192398071,2.5376436710357666,0.19294226169586182,-0.1388619989156723,0.094637326896190643,-0.22417923808097839,-0.57767671346664429,2.5754706859588623,-0.0059666205197572708,1.157906174659729,-0.33844390511512756,-0.63248908519744873,0.32704803347587585,-0.28597691655158997,-0.57132238149642944, 
  /* [1][0][][] */ -0.11443030089139938,0.84501641988754272,3.6540122032165527,0.24851897358894348,-0.11238062381744385,-0.68461692333221436,0.051067445427179337,-1.8480856418609619,0.8490440845489502,0.010393031872808933,0.82112187147140503,0.20694617927074432,-0.53178447484970093,0.16357056796550751,-0.034694571048021317,-3.0305392742156982,0.48686757683753967,-1.4785335063934326,0.11280536651611328,-0.010131857357919216,-0.79495048522949219,1.1636381149291992,0.84726220369338989,-0.99935811758041382,-0.39221343398094177,-0.41255894303321838,0.1848769336938858,0.13732922077178955,0.40079259872436523,-0.16116438806056976,0.48575419187545776,-0.050584472715854645,-0.088229894638061523,0.23368965089321136,0.34370395541191101,0.70927149057388306,-0.38216710090637207,-0.40958887338638306,1.6205312013626099,-1.6475496292114258,0.54514068365097046,1.2413378953933716,-0.023050133138895035,0.80817031860351562,-0.69258606433868408,0.23692320287227631,0.62979966402053833,-0.015145416371524334, 
  /* [2][0][][] */ 0.56433433294296265,-2.7750165462493896,1.2955518960952759,-2.5097687244415283,2.2730224132537842,1.5451241731643677,-0.30864942073822021,-1.8458055257797241,0.1428426206111908,-0.01728438213467598,-0.016310499981045723,0.72663944959640503,-0.63178294897079468,3.6494190692901611,0.63302153348922729,0.26159331202507019,-2.4223098754882812,8.2821588516235352,-1.6379737854003906,-1.8882564306259155,-0.80021053552627563,1.6180419921875,-2.267270565032959,-0.5577881932258606,7.7743434906005859,0.010397517122328281,-0.10267127305269241,-0.11148081719875336,-1.6958818435668945,-0.60284978151321411,0.29929104447364807,-2.719688892364502,-0.27956721186637878,-0.91371232271194458,0.095622830092906952,0.72181105613708496,-0.39547023177146912,-0.02030024491250515,-0.75725686550140381,0.56765401363372803,1.420525074005127,-1.3156709671020508,-1.2145096063613892,0.10009357333183289,0.076377794146537781,1.6689554452896118,-1.4528141021728516,-2.0196106433868408, 
  /* [3][0][][] */ 0.041856341063976288,-6.6875033378601074,-0.32881855964660645,0.53809940814971924,0.22102430462837219,-0.55233955383300781,-1.0781461000442505,0.55738711357116699,-0.60577797889709473,-0.80886942148208618,1.4514060020446777,1.6254702806472778,0.89603495597839355,-0.71611064672470093,3.3938665390014648,0.20665732026100159,-0.61379998922348022,-1.8356813192367554,0.1768699586391449,2.0373163223266602,-0.64996248483657837,1.7587093114852905,-1.8247870206832886,0.30041110515594482,0.51099872589111328,3.7632620334625244,-0.26127564907073975,0.27670922875404358,-0.54624515771865845,0.33963301777839661,9.2835817337036133,0.063381247222423553,1.0411115884780884,0.49178260564804077,-0.071037344634532928,-0.23446762561798096,-1.6803178787231445,-0.5852435827255249,-0.72208935022354126,0.804310142993927,-0.94738262891769409,0.82733559608459473,-0.41127893328666687,2.0158770084381104,-0.46584087610244751,0.088017091155052185,-0.24920736253261566,2.2811391353607178, 
  /* [4][0][][] */ -3.4869685173034668,0.2832920253276825,0.3104480504989624,0.21987925469875336,0.20353074371814728,-1.1888431310653687,0.022084752097725868,0.10453298687934875,1.5334070920944214,-1.3039830923080444,0.63419520854949951,-0.62533688545227051,-1.0255864858627319,-0.078113995492458344,-0.37460821866989136,-0.048384677618741989,0.096027523279190063,0.32295051217079163,-0.051222961395978928,0.97957748174667358,0.40546137094497681,-1.1048418283462524,0.46495354175567627,0.060115370899438858,-0.21109510958194733,1.5491576194763184,0.11197760701179504,3.8762412071228027,-0.19094857573509216,0.10540568083524704,-0.21410033106803894,-0.96707183122634888,-0.069679617881774902,-4.4379253387451172,-0.98427385091781616,0.70069688558578491,-0.11988118290901184,-0.3917030394077301,0.042674273252487183,-0.0090037053450942039,-2.0060124397277832,-0.30374529957771301,-0.36822649836540222,0.56056702136993408,-2.0564818382263184,0.15286432206630707,0.31486320495605469,0.10906191170215607, 
  /* [5][0][][] */ -0.59553086757659912,0.57822507619857788,0.57101941108703613,0.11872666329145432,-0.98966658115386963,0.21063551306724548,-0.122383713722229,1.1468980312347412,0.62438726425170898,-0.053661350160837173,0.4483782947063446,0.043596673756837845,-0.18628041446208954,-0.92998874187469482,0.2534852921962738,0.84870368242263794,-0.066175863146781921,-1.8742523193359375,0.38174468278884888,0.030116688460111618,1.0627123117446899,-0.81936508417129517,0.050644434988498688,1.0488317012786865,0.35517281293869019,0.056077484041452408,-1.9978758096694946,-0.87502032518386841,-0.79320955276489258,-0.67244237661361694,0.48409408330917358,-0.081710100173950195,-0.14012998342514038,-1.4331942796707153,0.04524698480963707,-1.4081336259841919,1.5413960218429565,0.48394721746444702,-0.9317169189453125,0.30732449889183044,0.51764839887619019,-0.93023532629013062,0.24475818872451782,0.24718983471393585,2.8779587745666504,-0.28281304240226746,-1.0129733085632324,-0.041788697242736816, 
  /* [6][0][][] */ -0.67452973127365112,-0.6024773120880127,-0.47987812757492065,-0.074779756367206573,1.051970362663269,-0.7453499436378479,0.041236847639083862,-0.87384915351867676,-0.37225082516670227,-0.066493235528469086,0.75168037414550781,-0.42708128690719604,-0.45193246006965637,1.139504075050354,-0.079422138631343842,-1.5474275350570679,0.11039029061794281,0.09660966694355011,-0.067499004304409027,-0.76570171117782593,-0.98018211126327515,1.0226575136184692,-0.11337777972221375,-2.2271146774291992,0.1128595843911171,-0.016154689714312553,-1.3654866218566895,-1.9459680318832397,0.65918874740600586,1.236771821975708,-0.27772137522697449,0.055051475763320923,0.2409580796957016,-1.7096370458602905,-0.27206036448478699,1.7369967699050903,-1.841753363609314,-1.584368109703064,0.27811485528945923,-1.3173650503158569,-0.02318655326962471,0.15557996928691864,0.16310533881187439,1.0955022573471069,3.5812835693359375,-0.97023111581802368,1.0875090360641479,0.39585769176483154, 
  /* [7][0][][] */ 0.85563790798187256,1.5827469825744629,-3.5398991107940674,1.5501261949539185,-1.0418370962142944,0.71692126989364624,0.45188108086585999,2.2830684185028076,-0.56339210271835327,0.004137970507144928,3.235053539276123,-1.4295920133590698,0.47657859325408936,-1.405938982963562,-0.42075991630554199,0.14109045267105103,-0.52586352825164795,-5.7280406951904297,1.7767230272293091,-1.6622416973114014,2.6778371334075928,1.6830726861953735,1.0140973329544067,-2.9380865097045898,0.93178355693817139,-0.70387649536132812,1.4563838243484497,0.08652842789888382,-0.79561543464660645,1.2070945501327515,-0.34948179125785828,0.12375782430171967,0.39909660816192627,1.8877208232879639,-0.09132058173418045,-1.3136434555053711,-0.17725495994091034,-2.667374849319458,-2.1294820308685303,-2.9981522560119629,-0.43001639842987061,-1.5580888986587524,1.5886834859848022,3.1456828117370605,-1.1493504047393799,-1.0343779325485229,0.32162004709243774,0.42759507894515991, 
};
const TfArray<4, int> tensor_dimension21 = { 4, { 8,1,1,48 } };
const ALIGN(16) float tensor_data22[48*1*1*8] = { 
  /* [0][0][][] */ -0.10251006484031677,0.0041587506420910358,-0.0047524478286504745,0.058469094336032867,-0.030454283580183983,0.030754324048757553,0.022343302145600319,-0.020272450521588326, 
  /* [1][0][][] */ 0.047973435372114182,0.10903743654489517,0.0634164959192276,0.0271342433989048,0.019724318757653236,-0.062100067734718323,0.14311689138412476,0.16462019085884094, 
  /* [2][0][][] */ -0.023598119616508484,0.00057346955873072147,0.00084016582695767283,0.0026325653307139874,-0.069785147905349731,-0.0084891840815544128,0.0092388177290558815,-0.00033710859133861959, 
  /* [3][0][][] */ 0.058999288827180862,-0.0035897169727832079,-0.0088159805163741112,-0.071617603302001953,-0.082173570990562439,0.0085153328254818916,0.020215772092342377,-0.0084700081497430801, 
  /* [4][0][][] */ -0.057834360748529434,0.026270696893334389,-0.0031770044006407261,-0.0077187833376228809,0.03549349308013916,-0.00082072260556742549,0.027256829664111137,0.0040361699648201466, 
  /* [5][0][][] */ -0.048291001468896866,-0.013475708663463593,0.01304225716739893,0.0023717915173619986,-0.066719137132167816,-0.00023799047630745918,0.0053806169889867306,0.0431344173848629, 
  /* [6][0][][] */ -0.016512557864189148,-0.11010757833719254,0.01603931188583374,-0.012343556620180607,0.010327556170523167,0.0030819287057965994,0.0074107302352786064,0.029897909611463547, 
  /* [7][0][][] */ -0.032530356198549271,-0.00015693745808675885,0.0029826501850038767,0.048466451466083527,0.060956165194511414,-0.01897905021905899,-0.014933133497834206,0.00011301827180432156, 
  /* [8][0][][] */ 0.051056709140539169,0.0083522750064730644,-0.0025878443848341703,-0.10567784309387207,0.0034770001657307148,-0.018678303807973862,-0.035476155579090118,-0.020888505503535271, 
  /* [9][0][][] */ 0.00059753545792773366,-0.16761641204357147,-0.0010961602674797177,0.010620409622788429,0.0019238627282902598,0.098160214722156525,-0.079215683043003082,0.11133754998445511, 
  /* [10][0][][] */ -0.18004271388053894,-8.156618605426047e-06,-0.0096591506153345108,0.033347517251968384,-0.20123901963233948,0.13841374218463898,0.091636329889297485,-0.014255277812480927, 
  /* [11][0][][] */ 0.070361264050006866,0.0082260565832257271,0.02297501266002655,0.0033546527847647667,-0.03758770227432251,-0.02472260594367981,-0.014543553814291954,-0.077435173094272614, 
  /* [12][0][][] */ -0.0012619966873899102,0.0090369228273630142,0.027618879452347755,-0.00076719484059140086,0.0081709800288081169,-0.052436608821153641,0.090743035078048706,0.046452850103378296, 
  /* [13][0][][] */ 0.081265740096569061,-0.028911259025335312,-0.022113535553216934,-0.02784256637096405,0.17576475441455841,0.16587923467159271,0.14713826775550842,-0.063700273633003235, 
  /* [14][0][][] */ 0.033839352428913116,0.0085939411073923111,-0.0046519958414137363,0.0099119152873754501,-0.029870118945837021,-0.0014279220486059785,-0.012945232912898064,-0.004317963495850563, 
  /* [15][0][][] */ -0.01121806912124157,-0.10089833289384842,0.012952656485140324,-0.011403207667171955,0.00064126233337447047,0.0064138979651033878,-0.0017059679375961423,0.031104503199458122, 
  /* [16][0][][] */ -0.02858964167535305,-0.0083525264635682106,0.004516534972935915,-0.0035083550028502941,-0.064350470900535583,-0.0021626907400786877,0.0084333755075931549,-0.0035714381374418736, 
  /* [17][0][][] */ -0.01743660494685173,0.058179769665002823,-0.068797536194324493,0.0067022945731878281,0.0062956907786428928,-0.071836560964584351,0.060960166156291962,-0.049287885427474976, 
  /* [18][0][][] */ 0.060081601142883301,-0.011388015933334827,-0.020362157374620438,0.0081769451498985291,-0.028541002422571182,0.010984738357365131,0.0077680875547230244,0.048569608479738235, 
  /* [19][0][][] */ 0.073799043893814087,-0.02391701377928257,-0.021120857447385788,0.0032190133351832628,0.023562552407383919,-0.00727064348757267,0.019701134413480759,0.015255488455295563, 
  /* [20][0][][] */ 0.078322634100914001,0.012860951013863087,-0.018318179994821548,0.083947561681270599,-0.00505824014544487,0.026399474591016769,-0.0010619636159390211,-0.033930875360965729, 
  /* [21][0][][] */ 0.00078028778079897165,0.016782347112894058,-0.031298324465751648,-0.001803198829293251,-0.010039044544100761,0.045762542635202408,-0.057474330067634583,-0.042686235159635544, 
  /* [22][0][][] */ -0.092612139880657196,0.023346791043877602,0.016034726053476334,-0.0081278858706355095,-0.038574278354644775,-0.0019874062854796648,-0.050643391907215118,-0.022202989086508751, 
  /* [23][0][][] */ -0.011605378240346909,-0.016039123758673668,-4.8724075895734131e-05,0.0029307857621461153,-0.032259736210107803,0.018138168379664421,0.017948878929018974,-0.0047510918229818344, 
  /* [24][0][][] */ 0.075515724718570709,-0.0043473998084664345,-0.008244859054684639,-0.0013288796180859208,-0.046946011483669281,-0.002500743605196476,0.0062150196172297001,0.0024417741224169731, 
  /* [25][0][][] */ 0.011797909624874592,-0.0098879486322402954,-0.0016645281575620174,-0.015256576240062714,0.078823119401931763,0.034308906644582748,0.029327502474188805,-0.017758863046765327, 
  /* [26][0][][] */ 0.015044461004436016,-0.39082640409469604,0.0014340447960421443,-0.14432151615619659,0.026223108172416687,-0.51128673553466797,0.31917640566825867,-0.25745037198066711, 
  /* [27][0][][] */ -0.016797401010990143,-0.11865678429603577,0.020527759566903114,-0.013183771632611752,-0.0024946520570665598,-0.04656209796667099,0.024277757853269577,-0.0099207069724798203, 
  /* [28][0][][] */ -0.035067562013864517,0.016981543973088264,-0.017379440367221832,0.0068539851345121861,-0.011047189123928547,-0.0064426595345139503,0.054097115993499756,0.035381339490413666, 
  /* [29][0][][] */ -0.013887244276702404,0.039779800921678543,0.011348860338330269,0.0041203754954040051,0.0025216888170689344,0.042464070022106171,-0.092369042336940765,-0.11834236979484558, 
  /* [30][0][][] */ 0.084471210837364197,-0.00039340645889751613,0.010709189809858799,0.0091043971478939056,-0.048153001815080643,0.0031840549781918526,-0.013014719821512699,-0.0024756211787462234, 
  /* [31][0][][] */ -0.0035758737940341234,-0.011432675644755363,0.028858566656708717,-0.0060782530345022678,0.010585969313979149,-0.048798281699419022,0.048292871564626694,0.024115506559610367, 
  /* [32][0][][] */ -0.10323241353034973,0.037201639264822006,0.014406624250113964,-0.0070627452805638313,-0.18217810988426208,-0.13835830986499786,-0.14500235021114349,0.062591731548309326, 
  /* [33][0][][] */ -0.014218583703041077,0.0066985492594540119,0.00051419739611446857,0.010132843628525734,-0.069449014961719513,-0.029923908412456512,-0.026794401928782463,0.010537613183259964, 
  /* [34][0][][] */ 0.0063555482774972916,-0.15482400357723236,0.056794192641973495,-0.011210460215806961,-0.010056787170469761,0.11928415298461914,-0.075423926115036011,0.08565705269575119, 
  /* [35][0][][] */ -0.026759391650557518,-0.05642211064696312,-0.15114888548851013,-0.013609910383820534,-0.0062780645675957203,-0.082904867827892303,0.054597251117229462,-0.066038802266120911, 
  /* [36][0][][] */ 0.022686108946800232,0.2226053923368454,0.094893768429756165,0.010688102804124355,-0.027555603533983231,0.024082507938146591,-0.03967072069644928,-0.07880786806344986, 
  /* [37][0][][] */ -0.084111444652080536,0.020214268937706947,0.023770401254296303,-0.010971816256642342,0.03654683381319046,-0.020255537703633308,-0.010246491990983486,-0.071892641484737396, 
  /* [38][0][][] */ -0.063299492001533508,-0.0077778748236596584,-0.021685909479856491,-0.0044303173199295998,0.021883910521864891,0.01155967079102993,0.013356289826333523,0.049599766731262207, 
  /* [39][0][][] */ 0.0052490341477096081,-0.017826871946454048,0.044157251715660095,-0.0080507853999733925,0.0059620221145451069,-0.062537603080272675,0.089186146855354309,0.061648376286029816, 
  /* [40][0][][] */ -0.0079398341476917267,-0.0032924986444413662,-0.00014217945863492787,-0.01092978473752737,-0.035890549421310425,0.029894735664129257,0.033109389245510101,-0.011006741784512997, 
  /* [41][0][][] */ -0.057666350156068802,0.026290563866496086,0.0013674907386302948,-0.036341499537229538,-0.044500205665826797,-0.044839262962341309,-0.04206877201795578,0.028982192277908325, 
  /* [42][0][][] */ -0.019104648381471634,-0.066190637648105621,-0.043964717537164688,-0.0019346665358170867,-0.0046283095143735409,0.032710224390029907,-0.065549686551094055,-0.04232720285654068, 
  /* [43][0][][] */ -0.040001235902309418,0.0011900834506377578,-0.002690932247787714,-0.067662425339221954,0.051921408623456955,0.029666587710380554,0.031631816178560257,-0.00065635133069008589, 
  /* [44][0][][] */ 0.49839374423027039,-0.019451627507805824,0.027390416711568832,-0.40010419487953186,0.11523668467998505,-0.14881068468093872,-0.054649725556373596,0.1714278906583786, 
  /* [45][0][][] */ -0.046878129243850708,-0.14677265286445618,0.011654078960418701,-0.012825118377804756,0.013308469206094742,-0.06374669075012207,0.083268649876117706,-0.0018835245864465833, 
  /* [46][0][][] */ 0.067735165357589722,0.00014709679817315191,0.00074486387893557549,-0.016777472570538521,0.079581193625926971,-0.022970262914896011,-0.015998387709259987,0.0016316489782184362, 
  /* [47][0][][] */ 0.29922205209732056,0.00069232413079589605,-0.0095383031293749809,0.23682110011577606,-0.023160245269536972,0.046391263604164124,0.011974245309829712,-0.085170656442642212, 
};
const TfArray<4, int> tensor_dimension22 = { 4, { 48,1,1,8 } };
const ALIGN(16) float tensor_data23[16*1*1*48] = { 
  /* [0][0][][] */ -0.54492676258087158,0.15764623880386353,-0.5603104829788208,0.32426050305366516,0.35630697011947632,0.015023011714220047,0.044508043676614761,3.1640927791595459,-1.3796695470809937,0.27648535370826721,1.1610434055328369,-0.22080358862876892,0.1753472238779068,-0.46795028448104858,-0.43387734889984131,0.33184352517127991,0.19986748695373535,-0.60659939050674438,-0.39281979203224182,0.10438191890716553,1.6681067943572998,-0.1262628436088562,0.42783236503601074,3.845207691192627,-0.3880174458026886,2.6816987991333008,-0.19675987958908081,-0.64767992496490479,0.65260899066925049,-0.39796462655067444,0.57983219623565674,-0.38382136821746826,-0.14733968675136566,1.2491673231124878,0.76045787334442139,-1.305931568145752,0.83758831024169922,1.350726842880249,0.59877443313598633,-0.30549755692481995,-3.1638007164001465,-0.66891252994537354,0.77334529161453247,1.2559072971343994,1.2475869655609131,0.68583053350448608,-3.6789023876190186,-1.5158728361129761, 
  /* [1][0][][] */ -1.6262643337249756,-0.64661508798599243,0.83652251958847046,0.4765315055847168,-1.1196866035461426,0.51262539625167847,0.098953515291213989,2.3109757900238037,-2.2350115776062012,-1.4623266458511353,0.37677767872810364,-1.7241337299346924,-0.78795158863067627,-0.59372788667678833,0.014639183878898621,-0.3630390465259552,-1.2881138324737549,4.5895853042602539,-0.46422335505485535,0.63363850116729736,0.26612997055053711,0.299043208360672,-0.92122715711593628,-0.65615004301071167,1.0126938819885254,-1.529353141784668,0.50261908769607544,0.95802384614944458,-1.0577582120895386,-3.3993408679962158,-1.462497353553772,1.0154745578765869,-0.60556626319885254,-0.36944100260734558,1.2328816652297974,-0.21829093992710114,-0.0011112577049061656,-1.7246925830841064,0.21375709772109985,0.53081220388412476,-0.73464024066925049,-1.0703941583633423,4.8643345832824707,0.41320973634719849,0.52365255355834961,-0.05900270864367485,0.96122950315475464,-0.63956767320632935, 
  /* [2][0][][] */ -0.82903337478637695,-0.28139922022819519,-0.43971550464630127,-1.1811753511428833,-0.063160672783851624,-2.2967414855957031,0.25914373993873596,-0.66139721870422363,0.018060225993394852,0.25589010119438171,0.55787771940231323,0.97027254104614258,0.66923534870147705,0.44057381153106689,-0.55340635776519775,0.28461748361587524,0.060276828706264496,-0.70374387502670288,-0.63942521810531616,-0.22315019369125366,-0.098196595907211304,-0.089524753391742706,-0.059631559997797012,-4.3487300872802734,-0.45769697427749634,2.7181622982025146,-0.65972954034805298,0.14753235876560211,0.16846545040607452,-0.83158159255981445,-0.32184639573097229,0.046926654875278473,-0.089633442461490631,1.9924420118331909,0.38698738813400269,-0.031586527824401855,0.82271480560302734,0.27949941158294678,1.0005598068237305,0.0014367037219926715,-1.3056831359863281,0.21018454432487488,-0.77446275949478149,-0.3022620677947998,-0.051582150161266327,-0.38097488880157471,0.58740508556365967,0.25300240516662598, 
  /* [3][0][][] */ -0.44345295429229736,1.5328565835952759,0.30745607614517212,-1.3466662168502808,-0.045785252004861832,0.053484134376049042,0.13987076282501221,-0.033223185688257217,-0.8583216667175293,0.006298460066318512,0.010983680374920368,1.7891767024993896,-5.7263455390930176,0.11800621449947357,-0.4123116135597229,-0.3762156069278717,0.073846675455570221,0.29202583432197571,-0.91891038417816162,-0.1444074958562851,-1.6816799640655518,0.1686924546957016,0.17369110882282257,0.73926430940628052,-0.26058885455131531,-0.43095618486404419,0.036736413836479187,1.1489802598953247,-0.45334964990615845,0.85763639211654663,0.032205119729042053,0.58283418416976929,0.36286258697509766,-0.026476997882127762,0.66070204973220825,0.80457031726837158,-0.44584184885025024,1.1460719108581543,2.0025956630706787,0.11450843513011932,0.53852748870849609,0.37976354360580444,1.0373058319091797,-1.4761368036270142,0.31814286112785339,-0.10749530047178268,0.10218429565429688,0.97659170627593994, 
  /* [4][0][][] */ 1.1090261936187744,-1.1223883628845215,0.42890852689743042,0.32606285810470581,0.70793378353118896,0.93279212713241577,0.927512526512146,-0.76291239261627197,-1.1127561330795288,0.073423691093921661,-0.42903530597686768,-0.74105024337768555,0.094906598329544067,0.22050949931144714,0.022133886814117432,0.48321771621704102,0.78783613443374634,-0.22129127383232117,-2.6176650524139404,0.044610545039176941,-0.34394517540931702,0.34260356426239014,0.50796902179718018,2.2732722759246826,-0.016186552122235298,-0.82758027315139771,0.1715356856584549,1.5290707349777222,0.29750248789787292,-2.4759759902954102,0.822135329246521,0.33650442957878113,0.38700363039970398,-1.1561578512191772,1.0703771114349365,-4.0086660385131836,0.39105397462844849,1.114916205406189,-0.03148273378610611,0.57621651887893677,-0.59168535470962524,0.61736440658569336,0.26568973064422607,-0.8172873854637146,-0.34714445471763611,-0.72267550230026245,0.37492012977600098,0.41352787613868713, 
  /* [5][0][][] */ 1.8340977430343628,0.16344077885150909,-1.4509240388870239,3.3607702255249023,0.019088279455900192,-0.66245019435882568,0.47011491656303406,1.169153094291687,0.20271795988082886,-0.37876501679420471,2.042248010635376,0.40442079305648804,0.1207427904009819,2.8394184112548828,0.30737203359603882,0.11839165538549423,-1.1838647127151489,1.2145494222640991,1.7959103584289551,0.33851578831672668,0.93303489685058594,0.34467935562133789,-0.0075509995222091675,-0.94357961416244507,0.077788345515727997,-2.7994494438171387,0.030589176341891289,-1.2378480434417725,-0.0033229938708245754,-0.41789457201957703,0.15148991346359253,0.079102866351604462,3.4051308631896973,-6.3356380462646484,0.26838976144790649,1.8692626953125,-0.72017395496368408,-0.49140554666519165,0.63227885961532593,0.35392880439758301,-4.6646533012390137,2.8915026187896729,1.1905053853988647,-0.12041480839252472,-0.0050290906801819801,0.23044992983341217,-5.4863386154174805,-0.4985421895980835, 
  /* [6][0][][] */ 1.2216669321060181,-0.32815980911254883,0.51366937160491943,0.23767121136188507,-0.38266047835350037,-0.23051033914089203,0.49619859457015991,-0.67467403411865234,-0.29712188243865967,0.31772685050964355,-0.060685422271490097,0.19708713889122009,-0.66466820240020752,0.40682980418205261,0.13523533940315247,0.24626170098781586,0.075344450771808624,-0.38474822044372559,6.6780862808227539,0.41594111919403076,0.36054602265357971,0.39119425415992737,0.92038917541503906,-1.8492792844772339,0.012576698325574398,0.066420406103134155,1.2091220617294312,-0.53478378057479858,-0.34706822037696838,-0.31486070156097412,0.23164498805999756,0.39530700445175171,-0.12173479795455933,-0.32385692000389099,1.4168875217437744,-1.9578869342803955,-0.2449338436126709,-2.3056340217590332,3.6327626705169678,0.5950654149055481,0.17494072020053864,-0.41343855857849121,-0.44204571843147278,0.35164138674736023,-0.54753720760345459,0.19455556571483612,0.41602599620819092,-0.55670881271362305, 
  /* [7][0][][] */ -1.0133050680160522,-0.28704747557640076,0.0049734744243323803,0.81047242879867554,-0.23757074773311615,1.8702694177627563,-0.15152607858181,1.2074713706970215,-0.057841546833515167,0.65366291999816895,-0.27499157190322876,3.0394999980926514,1.851683497428894,-0.24578727781772614,-0.12797112762928009,-0.064597785472869873,-0.27410644292831421,-0.62877058982849121,-0.39947205781936646,-0.5574989914894104,-0.99775433540344238,-0.089222937822341919,-0.39038139581680298,1.7145429849624634,0.060572050511837006,-1.0036704540252686,-1.1960179805755615,-0.77459263801574707,-0.36958810687065125,-0.33537864685058594,-0.47786927223205566,-0.23016196489334106,0.22416424751281738,-0.12439724057912827,-0.50874584913253784,0.15308044850826263,0.33787402510643005,-1.4812959432601929,2.3679077625274658,-0.17969194054603577,0.64549052715301514,0.79605454206466675,-1.5338548421859741,-1.3829723596572876,0.64158433675765991,-0.34579265117645264,-0.025737414136528969,0.1724853515625, 
  /* [8][0][][] */ -1.0961786508560181,-1.1600934267044067,0.055327668786048889,0.1981794536113739,-0.0070338952355086803,0.037781175225973129,0.13105876743793488,0.6956668496131897,0.010387461632490158,-1.8423876762390137,-0.076380953192710876,1.0513633489608765,1.209830641746521,0.024973796680569649,0.2365373969078064,0.31578275561332703,-0.061338268220424652,1.6669692993164062,-0.67585468292236328,0.35199904441833496,-1.0156469345092773,0.55656898021697998,0.045261751860380173,-0.14933925867080688,0.039535451680421829,-0.053409378975629807,0.035344216972589493,1.0185931921005249,-0.19007483124732971,2.9498000144958496,0.0018656012834981084,0.79760783910751343,-0.11204871535301208,0.18752355873584747,-0.45640480518341064,-3.1356077194213867,-3.0356287956237793,1.7640962600708008,0.76695650815963745,0.78238505125045776,0.63508486747741699,-0.069127775728702545,2.8185102939605713,-0.48397460579872131,0.273683100938797,0.78771615028381348,0.64288395643234253,0.69415360689163208, 
  /* [9][0][][] */ -0.70602560043334961,0.16202212870121002,-0.12125835567712784,0.97222989797592163,0.61969596147537231,-1.0330187082290649,0.087906926870346069,0.025445353239774704,1.7121880054473877,-1.0483424663543701,0.26078939437866211,1.7641112804412842,-1.598388671875,0.16007068753242493,0.29752722382545471,-0.2527974545955658,-0.28559967875480652,0.6117933988571167,-0.86271929740905762,-0.51760625839233398,1.6447763442993164,0.2585374116897583,-0.50896149873733521,-0.29578837752342224,0.088332518935203552,0.29387173056602478,1.3647154569625854,-0.73221683502197266,0.28760704398155212,0.27594670653343201,0.55848848819732666,-0.12237843126058578,-0.24607819318771362,0.76488840579986572,2.0660860538482666,-2.8566913604736328,-0.30533793568611145,-3.6352217197418213,-2.7186555862426758,0.13608990609645844,-0.70589053630828857,0.67123603820800781,1.7066410779953003,0.24609662592411041,-0.017004873603582382,0.43911054730415344,-0.52945452928543091,-1.4330933094024658, 
  /* [10][0][][] */ -0.6020539402961731,-0.21809448301792145,-0.97160667181015015,-4.2502641677856445,1.559746265411377,2.8672101497650146,0.31781750917434692,-0.53070938587188721,0.28425401449203491,1.0496343374252319,0.48330000042915344,0.4097563624382019,1.7312979698181152,-2.05155348777771,-0.93482410907745361,0.64996933937072754,1.3541451692581177,-1.4751366376876831,2.0254745483398438,-1.1229978799819946,1.1188520193099976,-0.92835330963134766,1.6385880708694458,1.976554274559021,-1.6989694833755493,-4.0566873550415039,0.29255920648574829,-1.2466461658477783,1.6782063245773315,1.3410657644271851,1.480075478553772,-1.3268426656723022,-0.87122660875320435,-3.0447852611541748,1.0063563585281372,-0.21701544523239136,0.46676942706108093,-1.3472886085510254,0.067149654030799866,-1.1662222146987915,-0.91510903835296631,-2.3375670909881592,-0.3166634738445282,0.5678369402885437,0.45336383581161499,0.66786938905715942,0.69570612907409668,-1.0481845140457153, 
  /* [11][0][][] */ -0.032538238912820816,1.285173773765564,-0.28746673464775085,1.4048478603363037,0.69929498434066772,-1.5237780809402466,-1.9444490671157837,-0.4660206139087677,0.043930567800998688,1.3412320613861084,-0.31122556328773499,0.022505216300487518,-0.39865520596504211,1.4314813613891602,0.047772709280252457,-2.3484156131744385,0.30023208260536194,0.87012898921966553,0.016632579267024994,-0.28893426060676575,-1.2106189727783203,-2.6165196895599365,0.083481408655643463,0.020691609010100365,0.25950717926025391,-0.88809376955032349,0.33781111240386963,-0.58715361356735229,1.3514226675033569,-0.91641402244567871,0.56319552659988403,-1.7582944631576538,1.0486911535263062,-0.42937424778938293,-0.79147481918334961,-2.168576717376709,2.3698170185089111,0.49426326155662537,0.22736044228076935,-2.8747751712799072,-0.25201958417892456,1.5459985733032227,2.3382298946380615,-1.7376177310943604,-0.047725185751914978,-1.2422908544540405,0.83972924947738647,0.71036249399185181, 
  /* [12][0][][] */ 6.4896931648254395,-0.30622401833534241,-0.78740972280502319,0.74026715755462646,0.20437772572040558,1.1401265859603882,0.20449316501617432,5.4577498435974121,1.0940725803375244,-0.50992345809936523,-2.880415678024292,-1.2219386100769043,-0.065383397042751312,0.61707860231399536,-0.54281860589981079,-0.06902177631855011,-0.4303109347820282,0.19091914594173431,-0.25370609760284424,-0.40534505248069763,0.043485425412654877,0.10729897022247314,-0.10551570355892181,0.72839450836181641,0.063803456723690033,0.85348576307296753,-0.16879510879516602,0.44747292995452881,-0.15617147088050842,0.63738226890563965,-0.32054638862609863,-0.01329997181892395,0.19379904866218567,-3.6283583641052246,-0.47986426949501038,0.55315911769866943,-0.90415114164352417,-1.031097412109375,-1.3642072677612305,-0.21514904499053955,-0.93905895948410034,-3.9955799579620361,0.21265256404876709,-6.774787425994873,-2.8370475769042969,-0.65084528923034668,4.3420519828796387,-0.10135956108570099, 
  /* [13][0][][] */ 0.3819032609462738,-0.0077352779917418957,0.094457350671291351,0.3136882483959198,0.41246345639228821,-0.38163691759109497,0.23308844864368439,0.077509164810180664,-0.017023554071784019,0.38919508457183838,0.17637167870998383,1.1262499094009399,-0.052983399480581284,0.048821806907653809,0.17068377137184143,0.23077456653118134,0.47929725050926208,0.23286543786525726,0.54874885082244873,0.26184269785881042,0.66048473119735718,-0.58198195695877075,0.53246408700942993,-0.10750535875558853,0.035451717674732208,0.034513205289840698,0.69513636827468872,5.8489775657653809,0.66259247064590454,-0.2054753452539444,0.54119205474853516,0.047862809151411057,0.19904132187366486,0.088298782706260681,-1.9587417840957642,1.0607510805130005,0.26877215504646301,-0.29148122668266296,0.28098377585411072,-0.67579907178878784,-0.54605776071548462,-0.096322841942310333,-0.043441541492938995,0.23594288527965546,-0.069863446056842804,-0.15273416042327881,-0.27831631898880005,-0.62353724241256714, 
  /* [14][0][][] */ 1.1150715351104736,-0.41553834080696106,0.63661777973175049,-1.13469398021698,0.92417663335800171,0.59227442741394043,0.60345935821533203,-1.7494927644729614,-0.86062496900558472,-0.81955796480178833,-0.072609387338161469,2.282078742980957,-1.3392317295074463,-0.11476034671068192,1.2577472925186157,0.3823697566986084,0.87518060207366943,0.50779163837432861,-0.95178365707397461,1.1171489953994751,0.4521946907043457,0.43407189846038818,1.3691234588623047,-0.33150625228881836,0.55692166090011597,0.93196219205856323,-0.51133698225021362,-2.0138273239135742,0.46875855326652527,-0.4905087947845459,0.99427545070648193,0.67920523881912231,-0.092617504298686981,1.2552814483642578,-2.3478209972381592,-0.87687265872955322,-0.83887046575546265,0.88912862539291382,1.5544000864028931,0.040516994893550873,-0.63459110260009766,0.067748613655567169,1.0752464532852173,0.091638587415218353,-0.14177556335926056,-0.018296763300895691,0.38759240508079529,-0.50999504327774048, 
  /* [15][0][][] */ -0.21744188666343689,-1.276641845703125,-1.6377104520797729,-0.922829270362854,1.3934271335601807,0.82481998205184937,2.0360743999481201,-1.2843168973922729,-0.45375105738639832,0.59315508604049683,-0.73989206552505493,-0.81038171052932739,2.2209310531616211,0.26340046525001526,-2.7920591831207275,1.8804894685745239,1.8220400810241699,1.4088882207870483,1.9802225828170776,-2.2534563541412354,-2.8507847785949707,-0.67779982089996338,1.6492648124694824,-0.2401825487613678,-2.6974849700927734,1.187796950340271,1.0784037113189697,1.463326096534729,1.374991774559021,1.5000784397125244,1.5336908102035522,-0.87978827953338623,0.72418546676635742,1.6251949071884155,2.6443428993225098,3.4014599323272705,-0.41082021594047546,-3.1889626979827881,-0.21432854235172272,-0.89866548776626587,2.8334388732910156,1.7329100370407104,3.1372067928314209,-1.4283766746520996,-0.12581422924995422,-1.184087872505188,-0.56586724519729614,1.7822457551956177, 
};
const TfArray<4, int> tensor_dimension23 = { 4, { 16,1,1,48 } };
const ALIGN(16) float tensor_data24[96*1*1*16] = { 
  /* [0][0][][] */ 0.04390990361571312,-0.018771445378661156,0.098111517727375031,0.10338538885116577,0.045538648962974548,-0.03167237713932991,0.02913334034383297,-0.013938807882368565,0.097893893718719482,-0.018430506810545921,-0.050815712660551071,-0.060985822230577469,0.038605488836765289,0.065806210041046143,-0.034828934818506241,-0.046246200799942017, 
  /* [1][0][][] */ 0.02901223860681057,0.069607608020305634,0.0018652211874723434,0.009072478860616684,0.064410872757434845,-0.0045895534567534924,0.010471001267433167,0.027122175320982933,0.025109255686402321,0.061376173049211502,-0.034434597939252853,0.088691696524620056,0.0077698584645986557,-0.022305235266685486,0.07519879937171936,-0.062700673937797546, 
  /* [2][0][][] */ 0.012636365368962288,-0.025282151997089386,-0.011748344637453556,0.00017110492626670748,-0.028441688045859337,0.018192561343312263,-0.015005826950073242,0.03451857715845108,-0.025278160348534584,-0.014181355014443398,0.002648533321917057,0.039949242025613785,-0.011257555335760117,-0.062341470271348953,0.041467174887657166,-0.069556295871734619, 
  /* [3][0][][] */ 0.32621708512306213,0.36265450716018677,-0.023327603936195374,0.14967887103557587,-0.37857991456985474,0.033640511333942413,-0.22480542957782745,-0.089707672595977783,-0.013317398726940155,-0.02969980426132679,0.28944501280784607,-0.17281597852706909,-0.16392755508422852,0.24446877837181091,-0.14721931517124176,-0.13919040560722351, 
  /* [4][0][][] */ -0.0088946260511875153,-0.015542582608759403,0.020384728908538818,0.013778629712760448,-0.016761459410190582,0.05095045268535614,-0.0067267962731420994,0.042316287755966187,-0.060612436383962631,-0.028380166739225388,-0.023638809099793434,0.025432828813791275,-0.00010487148392712697,-0.15930256247520447,0.045500081032514572,0.023172693327069283, 
  /* [5][0][][] */ 0.06571950763463974,-0.023036815226078033,-0.0099887140095233917,0.0034706555306911469,-0.0015645353123545647,-0.05806829035282135,-0.019609585404396057,0.0082730315625667572,-0.01341303251683712,-0.0024661673232913017,-0.067889183759689331,-0.0020839911885559559,0.0061950096860527992,-0.0010824791388586164,-0.0068279397673904896,0.015814710408449173, 
  /* [6][0][][] */ -0.056643474847078323,-0.056006215512752533,-0.0021260413341224194,0.04863574355840683,-0.026398548856377602,0.0024639442563056946,-0.048867844045162201,0.0052290260791778564,-0.070038184523582458,-0.032970178872346878,-0.022278059273958206,-0.019750021398067474,-0.010391083545982838,0.0065121934749186039,0.0053978161886334419,0.02079375647008419, 
  /* [7][0][][] */ -0.043982353061437607,0.0062256762757897377,-0.12707056105136871,0.094572089612483978,0.073677398264408112,-0.242852583527565,-0.061978556215763092,0.10576571524143219,0.034487660974264145,-0.079104155302047729,0.034039311110973358,-0.0097963958978652954,0.01773909293115139,0.058323021978139877,-0.066680736839771271,0.036643330007791519, 
  /* [8][0][][] */ 0.039084687829017639,-0.057986173778772354,-0.0015416392125189304,-0.018772350624203682,0.013128620572388172,0.01988498866558075,-0.072946615517139435,-0.065804071724414825,-0.022396070882678032,0.0050123250111937523,-0.075857065618038177,0.0035781038459390402,-0.15066465735435486,0.0051788589917123318,-0.0037480990868061781,0.034619707614183426, 
